{"dimensions":[784,32,32,100],"layers":[{"idx":1,"activation":"ReLU","biases":[0.00012114178974178069,-6.408612565856931e-6,-0.00002200057600604818,0.00011250811101206631,0.000050799504970153,0.000058998977866526054,0.00009283871590646117,9.519320428780626e-6,-0.00006719007546796646,-9.707882449310209e-6,-0.000027022527791802745,0.00006684328619020192,-0.00003434184281781012,-0.000051547796302850956,-0.00009177838853641788,0.0000550127523900488,0.0001961313955074358,0.0000154148615429872,0.0000107831312998917,0.00004332275912607895,0.0000999940097124827,-0.00005413846981115975,-0.0001084859613132388,0.00005886289390517778,-0.000030583377046956017,0.00006076707180977007,0.00009050794156377776,9.534792188942329e-6,0.00005498833181643966,-0.00011059454841669604,-0.000024347643497928028,0.000039186951584135335],"weights":[0.006717759027878404,0.030789206650370802,0.01969317228872339,0.08153325591412466,-0.045593528835890636,0.026306436460530706,0.00666972962582221,-0.01900566554347961,-0.11680741763943768,-0.059520587261112645,-0.008602503631201972,-0.03417614204816579,-0.007468707581206282,0.0018266607728074837,0.0633235730413956,-0.04259448477488057,-0.017901247600752516,-0.10350196826466168,0.08696762017094647,-0.05580422662960319,0.01007841462591989,0.01812992049729317,0.03867392022020568,-0.008910253618235633,0.0762491668415122,0.060863590872595706,-0.033339226504433085,0.010470269173535711,0.024099653215558833,0.058961460907387374,0.03269954880157313,-0.042660843230836305,-0.007411591273491653,-0.031160371339569788,0.053789366513703675,-0.027551387835270703,0.010993002108203023,0.06554372259830385,0.005977650322950609,0.050986609068601155,-0.007282161159911097,0.030434805888512818,-0.05690412816736383,-0.01836235748159083,-0.0011767320701070937,0.056339571929054144,0.01630503510789038,-0.0026614007491006864,0.11174056378286823,-0.026229736796605,0.026354733160487875,0.11123759758843331,-0.0277280263788974,-0.006275288917487726,-0.04941187144975724,-0.026720695916450505,0.008288657558952351,0.0326864336363621,0.03884892160892144,-0.05379634948905241,0.040343069347072984,-0.03260073023042448,-0.05591896788476649,0.026143183175385158,0.03796058642048534,-0.09960898071439246,-0.06494806637248665,0.04056569965048944,-0.027035547572378953,0.0213383349088163,0.018928053617423782,-0.09614070913412297,0.06577508800351595,-0.03775936374343071,-0.04174085014720961,-0.03679162609196495,0.1590241422139981,0.0337555799906611,0.030121430771242724,0.023100067407022043,-0.0068511836421495465,0.06888662471585397,0.06963818159626052,-0.08799461419669814,0.08236271382497559,0.06586810401077946,0.06068563213111773,-0.007587804498559553,0.013862729689516287,0.11569781615667729,-0.03637889649771988,0.0023448050640566807,0.031331952898995166,0.058374775705437795,-0.04724771736945975,-0.010884898913099753,0.01772419484400751,0.021714969995213582,0.05587223499423426,0.005920779011472497,-0.06103070188302396,0.07231850022590466,-0.010043626075512267,0.0037565314744103305,-0.04081875198927654,-0.0034486309536704927,-0.025253072637860228,0.027450941917839318,-0.06151193490774531,-0.020046435010280444,-0.005154602591342872,-0.017619428845834575,0.06111507799583248,-0.00726264831340575,-0.08428719385201704,0.03148127663282082,0.013318607690676346,-0.010546619995424064,0.03628261005796314,-0.07648853832998638,-0.030827927484183063,0.007963283012683198,-0.09854642372626456,-0.08159570689272057,0.041008671016160556,-0.0047070950112870205,-0.031883269660220405,-0.018382583812859125,0.04804422428174404,0.011393179524073377,-0.024504822307542178,0.018107351599602983,-0.09972729847595674,-0.08874308906100925,0.03752917687437484,-0.07701975774639283,0.01044938942255782,-0.034479600226573294,-0.0014853802793441929,0.015143610371629744,-0.13233461630534332,-0.003166180032735072,0.03634130114608607,0.06607323646854668,0.007776163811670849,0.05239310366001053,-0.06380891681863661,0.04742415648229235,-0.07094948926057787,0.023595661217574213,-0.049562639081882146,-0.007911587323351652,0.00909731710140357,-0.051787594511677824,0.019369408303102565,-0.06280569963967243,-0.001997951350199865,-0.04551271938360246,-0.07707104162026553,-0.02717644753426838,0.0068394176809784225,0.007374302542694725,-0.03482617016508856,0.11168461415293464,-0.009377096138083721,-0.07507206096884544,0.005206860989038714,0.03501317584471688,-0.042766008355137435,0.04105492388469027,-0.008951802784563898,-0.061152151906453206,-0.05720933997480122,-0.028566801309341132,-0.007585460454784102,0.048808150655361926,0.04295296568408886,0.08962996698560681,-0.004460826758550983,0.08610837745659108,0.049328112738646686,0.002309402148984166,-0.05074511440833646,0.03325658615191369,-0.04723406688911683,-0.026366196119683317,0.032502595657660185,0.0064371569235514205,-0.009864897653937282,0.004879685176316029,0.0012728829996965251,0.03310923231488463,0.043928730839988724,0.06649348056781294,-0.062029299746094474,-0.06317935697043617,-0.08528231317839154,0.03999212936422039,-0.09221549922090891,0.04741655352777558,0.030907678192601873,0.08753139212940782,0.04754135435130413,0.09689902763454622,0.027358023889283406,0.021307010473686758,0.04839174957270839,-0.060250786471986825,0.026811023997823286,0.05810553444567361,0.015683801379344126,0.08981695946473921,-0.05124712371162857,0.008989183800425342,0.08179283536913494,0.10610412129753954,0.075514857409704,-0.018091366066247835,0.02563184457482003,-0.02521538111401967,0.021560706213621893,0.016244162954800957,0.04009370360850194,-0.020389063334585823,-0.015415176223299572,-0.039226437742138597,-0.050413892357127676,0.04518550361638622,-0.009972564035629473,0.00841708066487904,0.03279922250463085,0.10528993717418234,0.017899306016650067,0.08451700779581482,-0.05368081809674606,-0.02623642549280822,-0.08221223144853199,0.03817418245038931,-0.040449332502944454,0.02648738920506363,-0.05332482883761676,-0.019648502163356046,0.027003799079342514,-0.01459712161172786,0.014984013778789315,0.04612210022629838,-0.014363835197948947,0.0302179771161597,0.08850342808996536,0.03495891147320276,-0.02698222975942894,-0.01851144680932955,0.03178724014657705,0.0009655828417684622,0.055455936513292683,-0.06353437425727078,-0.005865978645041727,-0.0329665044035934,0.013129684342118487,0.0648072649105695,0.03737511742522696,-0.04982218232879189,0.017472063490426893,0.10851665499608786,0.003678905833540421,0.049868018491832034,0.07349463010926317,-0.025973284936711624,-0.0030411507096914504,-0.015721933441614662,0.022818571255292287,0.0032863157721147143,-0.00702187848782584,-0.03182776095459068,0.03346088725037677,0.038461773917097555,-0.021001226260986956,-0.049724703573182136,0.011063942411571465,-0.04926854511743795,-0.00815693259139145,0.032600717329216544,0.02950739627541152,-0.01322551816332748,0.05394985797926088,0.09365804113781652,-0.04046784503761101,0.03303728587924729,-0.03969393334640139,-0.10416158940163738,0.018490468421969417,0.07512836380589102,0.08165260068233181,0.01684472393600286,-0.06593427819789226,0.02356336359557155,0.02108469437858146,0.06385251818991347,0.048409530636818715,-0.04162520309975419,0.07313348835306464,-0.061305331495873715,0.07542086639892624,0.0047571126291188525,-0.028446645067046104,0.04996659745101484,-0.001728997447929155,0.06770167493695825,-0.05524028622796222,-0.007504083813662332,-0.024581410415700573,-0.09533100243934087,-0.007113029915581528,-0.02887490291189396,-0.003183818509148758,-0.05849553670606099,-0.07405273440155556,0.004491753979967416,0.004871627309571767,-0.08403192277656318,0.03571773489607418,-0.02133437332727216,0.007754840531396111,0.0220026398600969,0.1069882675687615,0.04348943159793215,-0.029031279140932925,0.06251614118713342,-0.05851243638663323,-0.025247265527662016,0.05478131017309582,-0.057312901209924175,0.060255179799991114,0.024847218625892085,-0.0020043259488722962,-0.0027795312994552137,-0.00467204549673219,0.07121132553558568,0.04390894567804895,-0.030907435052714437,0.013406141333654018,-0.029421649817037942,0.007940867315168599,0.039781039389288404,-0.03045856001746608,0.027108710296923643,-0.03322010442858391,0.04592375512205295,-0.006017085831565778,0.09817586580628278,-0.02431870822497279,0.11007665672865682,-0.016372215226470536,0.08004681957859415,-0.016598085706511008,-0.029617768631663283,0.02395150882127995,0.06193546769887302,0.03799035300474788,0.09713496811383561,-0.012278992136778178,0.06657996680684358,0.030795573556777176,0.023005883449797215,0.0017312598952794812,-0.06990766723534891,-0.06838066258491124,-0.05664999445947119,0.026351991486839737,0.02335802331999183,0.0538185451216337,-0.009710303356173483,-0.06807933479390291,-0.004478016625305133,-0.039632059289982334,0.07184067589675988,-0.023590898526390746,-0.09207129397922416,-0.07926289415638123,0.0868594066563588,0.05999067475080784,0.005398659521637172,0.042180499999584585,0.019731637353335694,-0.019957095706759864,-0.07422975819484479,-0.009214008314502007,-0.02849589616991355,0.025519015376277078,-0.050047246030301244,0.019400198933865635,-0.03653793478801916,-0.021093804553912025,0.008250588086359345,-0.008121755061875353,-0.0017395953999641367,-0.041390568864692286,-0.09358398004750951,0.09749064031585823,-0.001378532356262884,0.03611894682729275,0.06805821205538824,0.04560099249298218,0.04521716804946464,0.020774385096954034,-0.04234328724953779,0.0934398553563697,0.022764900917474563,0.01175767630384085,0.01543726676582518,0.0055431249114971295,-0.05913035830086778,-0.09000342527105236,0.0030298356402375863,0.055870242046172615,0.054047050297534434,-0.0104600216112702,-0.1380964051518584,0.039037177791502085,-0.004145918681562567,-0.1703264812693671,0.015857704001742214,-0.0068359828544636665,-0.035608757578097366,-0.048006232183928195,-0.0025985682617395557,0.04794408407725569,-0.006011780416677555,0.06252939801647743,0.02897880596023252,-0.097261140549591,-0.03072990702796192,0.049792122552460225,0.012418973782823096,0.04844971250556702,-0.11608576521875036,0.025816064612708436,0.08791078584301418,0.017465518939272635,0.0051588679759778065,0.0389278090908684,-0.043703671527804855,0.06209282924070494,-0.01935754757023008,-0.03664731995878042,-0.03675636593205898,0.10856776965787363,-0.010242628017512235,-0.074069658722499,0.04749048032117584,0.05003813241635684,0.020637891861609393,0.008945728955737073,-0.017079264541976117,0.057416367237782456,-0.022001919381004983,0.01514529282013421,-0.011442527920275069,0.035762836128004113,-0.021170787120844737,0.03833303405523719,0.04114931360101855,0.03583186327914073,0.006171647227417926,-0.004319704535456317,0.04269917647430504,0.0388347273280004,-0.017599694736582114,-0.009134483903533983,0.013070080126949166,-0.04325796299601661,-0.0155336822572062,-0.027354203837429848,0.0573445514182595,0.0189098196933285,-0.013070441381826484,-0.043950171510895114,-0.022612099555095008,-0.01873546390493792,-0.04698670265562562,-0.023528709131883437,0.004069439884317235,-0.056208527295996416,-0.0478794275563416,-0.0005130743233855644,-0.03609767082579315,-0.00944427996959489,-0.002930630789100362,-0.049782373842197365,0.00724557096417886,0.01155727807353952,0.0038299153944025004,-0.045767389501282466,-0.049094010973467654,-0.005074704627509486,-0.044861806441935624,-0.04318287000791817,-0.06011698523528907,-0.033109015618866804,-0.004067813008872408,0.00809460431478471,0.03365881002254995,0.05313191720003151,-0.019182652123338615,-0.09797880534771558,-0.0026773950455511435,0.02377152945632404,-0.015100837013804741,0.045340529858370074,0.049192173936436365,-0.09193635486271669,-0.02726779118999021,0.01505262734987834,-0.007694636211724051,-0.014396784178253606,0.024297554262150717,0.07349356914792282,0.1080215385504934,0.08257768820420923,-0.026768683398798114,0.012412705293263477,0.07172680049429753,-0.02954799991727618,-0.07753006740275106,-0.0030486681191522302,-0.08552912162178695,-0.007621233261210637,0.039190577678540124,-0.034208255062923604,-0.08210676569525423,0.02981357406802914,0.08107433027658326,-0.042569829319644974,0.039077214841778216,0.07474317525301188,0.03683524639727419,0.027378746185890045,0.033639878802331644,-0.013308401731440107,0.021843629364211886,0.057869232359926547,0.05881745290193266,-0.05795502858132409,0.01676410056394536,0.01693783836024127,0.03590039076377608,-0.0856063333041417,-0.002443875727471443,0.04184701012343614,-0.07370088008091356,0.004592041772810751,0.02837385613841911,-0.09242497210718004,0.05245435378422667,-0.014318482994113988,-0.1625931119195212,0.008243689357130058,0.09970010915143704,-0.09858275562753355,0.008649862925132416,0.018452443310415585,0.1130848538399178,-0.031882287287009314,0.06924103999758607,-0.033536311993066864,0.013356427359906218,0.10339722709638223,-0.01627872193834042,0.05037615789805506,0.0347446071919566,0.018572622100973137,-0.03611461314955581,-0.008090756699044629,0.03494245059335363,-0.012629516242184663,0.03479156981054701,-0.0034543847068834875,0.009005448221573394,0.03216125362106639,0.008225492485168377,0.12162910492998488,0.002635308965238026,0.018508889784409607,-0.06379702663553857,-0.0499796834753501,0.00988579735396385,0.057223952130472905,0.05842077581877363,0.16207083519712367,-0.009923278081334756,-0.07895650397973539,-0.10149556386001055,0.0025213216199299424,-0.03272715228861259,0.0387157801864002,0.0489007692254231,0.025178292663981968,0.05244573158874232,-0.011310777298726187,-0.019727322581340117,0.01875699541588895,-0.04102630067059531,0.09664236354423619,-0.0689945917345621,-0.06402133922497595,0.026798293229859813,-0.012342660777230011,0.05448299871362612,0.00902980400200077,0.041536849051935686,-0.005150374457142872,0.1230575855535735,-0.038828536142372826,-0.03877178303431498,-0.08067984222173792,-0.033401020212593203,-0.0207475956215817,0.06588097414688855,0.0309028076219305,-0.04897744781735367,0.012188032143608973,-0.05446975661800596,-0.012518126947582808,0.11825448821921603,-0.04565003804841863,0.11907637802093436,0.03861773032424224,-0.05764539401957088,0.035918039419848904,0.04572008381743888,-0.1307026491795275,0.04811806939617881,0.017784870783623126,0.007947589065840989,-0.021996412619302345,-0.03383617725443611,0.13255202205506134,0.09823112018538949,-0.037775914473575735,-0.013534532270102238,0.015267323808311715,-0.0686276720385767,0.010690186116593817,0.019301399666036483,-0.08277605725731951,-0.03852502718843657,0.03813410211241218,-0.05249624796207536,0.049530336851915886,-0.04361815500172005,-0.022597319845881154,-0.0017143659868216188,0.024769656612480307,0.08934955706418483,0.02949417643277534,-0.046270210251516786,-0.020427695760672777,0.07781973798718822,0.008431831960293974,-0.04476261864423171,-0.02849980402013572,-0.03373426950636915,0.035399833695503716,-0.05902330306236427,-0.06184740179407956,0.05393660516094191,0.03357323562024043,0.0007442653303033946,-0.035175931402924084,0.10085574839718887,-0.02177643419079536,-0.0709047278903485,0.02989191735969839,0.1119908551472382,-0.008810048638673754,0.09173761714534914,0.014678229548644759,0.06931191657912307,-0.0016577617782322193,0.013554892425764105,-0.01172692316757356,0.07563427347819941,-0.03836755397819895,-0.02459888096462672,0.066556546120775,0.08590777132507,-0.04313678171196982,0.0014378788763083502,-0.0155177427887335,-0.011277295619279554,0.03629612996999319,-0.042493187497273335,-0.04351827455289282,0.01997759418973655,0.0894699151041342,0.09815107299365192,-0.0004989373263924442,0.04496173884454524,-4.738144476758673e-6,-0.02657856293955749,-0.07473600920591689,0.009822962780475508,-0.03130466624829464,-0.01309719272987313,0.02093062191319631,-0.09584224637113313,-0.09399732198594085,-0.03310408849291814,-0.037658699151528405,-0.04857508668583703,0.021840087861413445,0.011122216442251542,0.005869168305036749,-0.03413213988042973,-0.0036131336374039657,0.005530495628671982,0.02250739097279268,-0.004027510787292199,-0.03709137776120798,-0.010474642056666138,0.0035537833898081953,-0.012139661021773841,-0.0022711281040127523,0.042213182770170415,-0.0017729329702202586,-0.0054379737982863975,-0.07930679930817772,0.008226080868639574,-0.03342272857452053,0.01328500140729034,-0.002442399613213928,0.01967434197607249,0.023204861413614268,0.05197308997720616,-0.024241722599169735,-0.015090843980855015,0.019599218179397866,-0.04642901035331845,-0.01639356540841395,0.04451276256920151,-0.006534367099226322,-0.04917729103973775,-0.05569471896151957,0.00773811739309731,-0.06366568052375894,-0.05181374798573715,0.06330357989929801,0.09598103524460551,-0.022223188986090485,0.03708828872635142,-0.041225496023873105,0.0044326809003432015,-0.01794009090493808,-0.014117400711027408,-0.0754714105422323,0.003444118598054293,0.03911394699437003,-0.014718691749090032,0.06279974251396149,0.04748980747839941,0.06650047532810661,-0.021466427199163304,0.05657625594432616,-0.05231271369739217,0.02173615577866486,-0.030612267776722376,-0.03575257246226153,0.08298502081996562,0.09357668393981117,0.02006013878202024,-0.08380994462165249,-0.021230957405623613,0.0777153733168964,0.055731618467676824,0.003827855086123819,-0.021320711804916393,-0.03838368002268974,-0.062044952715147844,0.036048039486145905,-0.016035682630079096,0.027446860486510745,0.025682337568988654,0.0511336502106132,-0.07829921606701751,-0.011150155616892797,0.00703561905911018,-0.07980407094188632,0.025766411442659717,-0.03519500748224387,-0.043267135605604974,0.056107210214399524,-0.02994902642048895,0.06678359014219586,0.02347511648384857,0.021922857157181227,-0.01129352653025493,-0.011089123754722253,-0.0690049278721612,-0.053290975897137584,0.08755673454102872,-0.06310141167003314,-0.00014057416743701494,-0.0322959205967642,0.015471885360204093,-0.013470637698945482,-0.04658168730262529,0.02373625245201557,-0.09194723518795057,-0.027423635352154745,-0.02429715715879082,-0.06803689535454593,0.0666036248345582,-0.003015909144647435,-0.03760484478199214,-0.0524348324043294,0.013289027903716381,0.06387131034519763,-0.0014484906737530017,0.027756303597262683,-0.032948633794564426,0.02670420959733421,-0.005307760251064563,0.03948800231774071,0.15808332901497538,0.016570563956675225,-0.009894382475997401,-0.011797803342502067,0.027863497475681082,-0.04018027714390881,-0.0033125757157601785,0.019346582033801983,-0.010354463481325621,-0.0856353934852012,-0.019338059399049336,-0.0794126471157904,0.04658737470366801,-0.07175876092665316,0.020371080053698743,0.02568133456772708,-0.0540560703138795,0.06207142615235825,0.011165047919471469,0.004624483291412831,-0.06688368359153593,-0.053488307517428016,0.026829316190293603,-0.014769065257775334,-0.10461583499555702,-0.010830742586230008,0.01337325719887367,-0.0036572173461391633,0.03386143719945968,-0.07135518564025367,0.0003613419320985226,-0.006204208763912646,-0.010641952660756782,-0.026508413463273088,0.02479549620588587,-0.05880939312595163,-0.04331949389698255,0.035658725032245625,-0.018178104507309254,-0.09122088293704707,0.007548736682529489,-0.004960960630808936,-0.04802098807710648,0.029957585024525966,-0.027437842352751613,-0.0037931438822989623,0.00764134802007405,0.047064018392492836,-0.08072560943208058,0.03943538389398908,0.08213935898482157,0.049798887952952786,-0.1040588404850893,-0.027362500192818322,-0.041428141615881035,0.07574039315091166,-0.1226042997499394,-0.03522656484887439,-0.04966882488740142,0.04962887033079395,-0.018923522711059963,0.0008931705419374879,-0.048557190720349225,-0.042668785557419486,-0.014376389567919041,0.09201888977368619,-0.08466708867948373,0.04738966922693889,-0.030958076539287647,-0.0043053951810593976,0.037355939338048975,0.006803051729439607,-0.0044321598007466215,-0.0504596380400819,-0.0021750376004935268,-0.020471935538246566,0.00023681360924655102,-0.007491394608929014,0.004749869052609876,0.02707408442826829,-0.013185378053402733,-0.0024616549626613614,-0.05044184859796089,-0.06957507000038608,-0.0497861051019346,-0.012695392462020767,-0.008373118403538552,-0.043133211479971165,0.04219302399253669,0.09024034534927503,-0.09028400777171866,-0.10514512697666546,-0.08456211319702382,0.06530197877013434,-0.08610215821182593,-0.04019726212693456,0.03748656115340448,-0.0033219103628199472,0.003664962387999165,-0.02958970892193764,0.0995777006919254,-0.06843460442832847,0.06168997579201718,-0.02267814946262546,-0.07887259916322113,0.0468106274423411,-0.11065499646963597,0.043073927444607765,-0.03491185285796707,0.0193631257185275,0.020460356993610228,0.07500151764680435,-0.024322414313676932,0.056072497086144486,0.032638944634359374,-0.06433054132688128,0.09623078818502456,-0.018615481287882627,-0.11909128116572902,-0.025516570906093078,0.07114842345265626,-0.05858934951594571,0.08973228364073046,0.020542085893044088,-0.07446462224248988,-0.061759758023024414,0.022381064089857274,0.006549351754724463,0.08270844638256439,-0.07487457216422566,-0.016171673091423307,0.036898803170023226,-0.030093821914950362,-0.07835423122439282,0.04347982169581845,0.032074736802064234,-0.027034664498494076,-0.0910343209606891,0.04029346081472732,0.07794930073879949,0.013360020325185627,0.0952483393058915,0.08061410882994122,0.05228940933374356,-0.007746109930110827,0.001100173709824226,-0.01476501797335086,0.0790648664217934,0.03527131511720563,-0.04196331587925928,-0.06385199552888338,0.0605875515923995,0.03864705753674282,-0.0015589894253895218,0.006679309468810677,-0.021732842524748996,0.074830611579553,-0.005466152874446469,-0.05096011310200541,0.05428951768585519,0.04853652848981996,0.07995507275629796,-0.005674431505971586,0.04414625692900928,0.013081278436470924,0.007538598072256564,-0.0065989062467470185,0.06619115526605059,0.05240210551631443,-0.07386301177692295,0.019899898286960885,-0.006049512469136947,-0.05285812414776956,0.04700415880895734,0.03228972093110822,-0.02110019610660151,-0.03705549157357283,0.003468351022192583,-0.05772635853785759,0.02472884987129698,-0.13958258984108948,-0.0941578226957679,-0.015049925978436785,-0.04059480602024567,-0.010146404807972614,0.11159462360404114,-0.061914946602100764,0.004036278034614862,-0.0071874263782293266,0.043429648639325864,-0.08125100181152708,0.03575884421325948,-0.0403197188914366,0.03946012932135604,0.10927428022604409,-0.010836727436309168,-0.03678632017271666,-0.007558601516787886,-0.008432285483278672,-0.05056007558915817,-0.09579212567165207,0.11750272683036266,-0.05067239151821426,-0.005453734823583307,0.03468871886159937,0.009481675390208992,0.019845190710394943,-0.027457604719438387,-0.01149224048457125,0.023386654719895022,0.0012663235722681248,0.016246444465777415,-0.0204665021427027,-0.0130769128662378,0.0027644329096751167,-0.04077561636576531,-0.00739159754994498,0.0914294145556179,0.019204828924262285,0.06965791577676927,0.030328693907116684,-0.025144147201113257,-0.00033591076113104515,0.016135800611694815,0.023964901750420996,-0.056890543294900266,0.0013626284406706092,0.07943146046835678,0.025765417855408014,0.03814814086786966,0.007192602553038899,0.06309210349549962,0.08890601260626785,-0.02796363373871523,0.043218530547106705,-0.06680798515562911,0.059551139572688074,-0.04121334319734793,-0.058367442206448926,0.02619912665953898,0.11004263419067445,0.030868143993233434,-0.009518287028234141,-0.008854730036038266,0.008544116796655087,0.09213839012086925,0.01296200642937149,0.054256738662811756,-0.0403007961545449,-0.11533467581062737,-0.041717004342708607,-0.006073332321599917,-0.07272077122470168,0.00023170160610785361,-0.011449772455009645,0.052722523716970046,0.04984145760509804,-0.03240059725131974,-0.10566538165540429,-0.0640879726697263,0.0018569863296329645,-0.020465138662828713,-0.04442305409953924,-0.049906680210519125,-0.008498733030608442,0.009067108380627542,-0.07156942490790201,0.005916181045832473,-0.04214479666052928,-0.00831151616699215,0.008123352154101647,-0.03224635068584458,0.03544915466149641,-0.03307980465539073,-0.04408325358997781,0.012762653746604484,-0.012872217667459785,0.01864924888295835,0.027439587941345718,0.03679148790222999,-0.016832045523848874,0.10155086321374532,-0.09835876425855622,0.017733437339352228,-0.040672039984102876,-0.13463920618867112,0.10866916314356935,-0.02659758124795197,-0.012896130634261241,0.013139302535823268,0.032289457757119604,-0.030839473878334238,-0.04627896289817725,0.09722689586223206,0.03628410777882978,-0.04007331725663164,-0.04117733710892832,-0.045241362899349206,0.025678682786032445,-0.016104853079219102,0.04307581461823804,0.033934514950979836,-0.008449069126373717,-0.028860440531917254,0.05127183767507186,-0.04218792925228257,-0.021558163823095135,-0.005340723322429105,0.09304312543788519,-0.005229438097705216,0.02731876053181984,-0.01971761215986627,0.04912870888406456,-0.08857490191660258,-0.04225460544460002,-0.10625972186202895,-0.03169397730911978,0.0026383898693216026,-0.006372922075055832,0.02522308531312849,-0.001214641608760915,-0.03129760024073423,-0.16277883271690116,-0.019612517533335126,-0.052436863440393874,0.05615756137823591,0.026836512496296015,-0.03330342615845722,0.09462553528550575,0.04193670890120205,0.03346765694970715,0.03126732938383044,-0.00007208670806399086,-0.017262707895299035,-0.0784182319966284,-0.021450261145060157,-0.017170062656871873,0.012269200652676338,-0.031586090869625105,0.0195335015838899,0.009725556805905596,-0.0058527648536877966,-0.042284479782342115,0.02397035010601006,-0.03521559403281131,0.09208749857721145,-0.0575394062901721,0.025664791046622615,-0.0484506722509959,0.005103510378943929,-0.0616983093682803,-0.013791613546165975,-0.010343940479954895,-0.05997486617144489,0.07951394864842784,0.10969441590090984,-0.025615309705873102,-0.04493476992083456,0.004687541339560129,-0.026495751503742636,-0.044078651810384305,0.08114389082622889,-0.020267832275699803,0.14147123856125912,-0.049177037294169015,-0.022801757672946878,0.045069200919704795,-0.04847006346878216,-0.03613102775139222,-0.05032659714294599,0.018482586854510114,0.012588221511834127,-0.03228336878471935,0.01583788874970094,0.01179152629390458,-0.017639716712515754,-0.00772475201282891,0.014786671100580009,0.05545588110823586,0.03651126352048518,0.04005295433137564,0.060744017852552255,-0.03673510460654737,0.00953194399950025,-0.024604876012575536,-0.016854924722573886,0.003829295571692665,0.03406553740873346,-0.09391860179473523,-0.009561444771322208,-0.014393259293306267,0.058711832436222466,0.08592506667811455,-0.02888487735029965,0.01523402028070483,0.04769571706847504,-0.06826042558970934,-0.046887694215790705,0.03763827599790642,-0.032206254406565216,-0.13664729095892583,-0.028331039749677427,0.027697817777069304,0.06300156341478814,0.1079133760575242,0.06332434161143245,-0.007990879027555835,0.004158115747603291,0.016933928399328297,0.009268125756651039,-0.005291116709858512,-0.017874490388445147,-0.012592263097944494,0.023520754454979687,0.05480306555573037,0.057783859962209874,0.05546570040522564,0.027519012376480037,0.005393637345823177,0.04230427851827402,0.11926380765314723,0.003987429451871218,-0.012422105182761982,-0.01635676629000416,-0.025830038648501613,0.018799646534529695,0.0065303761723356215,0.08035648536678293,-0.035715160517438144,-0.055557035100579376,0.07754935445075643,0.12477447729360852,0.0016322351736536077,0.017817982328148338,0.056617872482206226,-0.01776945430544341,0.014452914629383452,0.08166299001259616,0.11282872916951427,0.0032109064204761603,0.023579281352152575,-0.056482799210405575,0.06279360594893103,0.038995577467976446,0.005872489918640874,-0.04285592552396282,0.0015383759172426378,0.07657077569426678,-0.009168037357685586,-0.0017030138499988484,-0.008447375187900091,-0.05401017167064469,0.03664821689097557,0.032171360573847556,-0.044625954493088045,-0.036488308191026976,-0.03505105089426149,-0.05130335055482505,-0.131644992976966,-0.006539042218939786,0.02876853028754016,-0.028373482588627,0.011506132819236325,0.04365179972678165,-0.10222219900095476,0.03177907307963767,-0.08068296908682494,0.05470842329771099,-0.06847778050754061,-0.11870263912793239,-0.03173503451479442,0.009768269639275958,0.0378896354881292,0.05804635675580599,-0.003582410545585651,-0.008933231352704785,0.07417624800494414,0.027033241388062547,-0.0467002836195293,0.02241391720836794,-0.03564698476839001,-0.054845295144225564,-0.009721366851346941,-0.021240357150461197,-0.044900797110276024,0.03427473986954124,0.0035191882222943126,-0.06399338728095169,-0.00912665658873472,0.06100564324364684,0.04525534929730312,0.05262839613052443,0.04090017998281557,-0.0030571624022590815,-0.047019023687869144,0.005496903523480749,0.053334959150697886,-0.07890056470151441,0.03360092827559903,-0.018657072361715342,0.013978333638388109,-0.01289589938343557,-0.03696279601140905,-0.03910479802312486,-0.00941347162020461,-0.031022291963167893,-0.015453622432101135,0.08545034899546675,0.01863427417475732,-0.05089648449562664,0.008511169938217107,-0.039806465933080716,-0.04200467944720743,0.02029054668500252,-0.012617346603282231,0.025811724292122046,0.005969544500708358,0.08477890968698733,-0.0556177317625591,0.03005541234750694,-0.09520804817181852,0.04070579810232391,-0.0686622753954891,-0.025810599193294637,-0.04574049723972493,0.014897917756563768,-0.052028390295659234,0.027865242340137444,0.009188861610051948,0.0010624849490314444,0.014052414685273044,-0.13038999529308914,0.001597531523725699,-0.053328105956973335,-0.010602160815363562,-0.03544560933090609,-0.00991685620790017,0.09779026755458811,0.014779765167091471,0.12531365463872546,0.001849285231542241,-0.052993238002191086,0.040336498206761655,-0.08709794976894862,-0.009225974342730788,-0.05929897470790339,-0.01810711489315934,0.021596340654034128,0.03622432414140759,-0.015186825242956573,0.021690025091001566,-0.0065495416236970765,0.06866471029313623,-0.0005459929890753659,0.03947810776846041,0.011364970414551248,0.042338673750759254,0.03007999559711462,-0.05971936365398617,0.09917391097978856,0.02933535524237464,-0.015194325182336422,0.023876678307045023,-0.007949226570102578,0.025796373156941076,-0.0005581987203415661,0.08081524219637756,-0.03556468434715914,-0.0637652323363871,-0.025272090387399623,-0.017936220076035073,-0.02270819138667335,-0.023131098281893487,-0.04682498088956781,-0.01880022850431122,-0.11049554151557427,0.07274049101987162,-0.02108713582823612,0.0018274929628932302,0.029135213052099145,0.008258410910653616,-0.011457217297352369,0.012140897678984384,0.07012114016459646,0.07890036642836638,-0.01327569704777243,-0.0007578299668890326,-0.018097478003229424,0.00023970059582059688,0.015531261970874718,0.17377487393693378,0.06256184857498037,0.04233779435809555,0.09104167861756174,-0.03192970593747177,-0.039546870920335535,-0.04147874964382091,-0.03179758250379278,-0.008548054001752011,0.07978173295292841,-0.002752402151442018,0.07076324090642451,0.036276248552957406,-0.0011889351314041568,0.03512777807530955,0.016193240563835577,0.015972378123214725,-0.09973907048311698,0.01722222907895388,0.12695999900097146,-0.043041075474020474,-0.02380845426542513,0.012514236798371582,-0.057250511767190995,0.06101668783756811,-0.08375307907997426,-0.1331959018963659,-0.10597301622401621,-0.08465217234954621,-0.12054653056682722,0.03714256667548891,-0.07705967151888525,-0.03171437366752029,0.06649895369859359,0.08466631854898396,-0.1447041200421185,-0.09004994199478907,0.012941691859973998,0.12555146872290518,0.05243761529275902,-0.04297360324531455,-0.01803600043179193,-0.020463112345254754,-0.08473153769081332,0.007950568599259637,-0.03997129615655923,0.05626360126758157,0.09481616268387418,0.03880052563151737,0.005637770509600739,-0.026640142541777247,0.030071920704965432,0.07298169616511575,-0.08792331506374708,0.019521147762352687,0.030271421369304007,-0.0096125975683671,-0.026992893181961908,-0.02107175843252414,0.13736434729956842,-0.013420069964324535,0.03634269115917974,0.0311383272108268,0.023423014807800912,0.12577576982466723,0.08414002414943295,0.05353047555420854,-0.01789630843808376,0.030978183020447737,-0.007507236802596893,0.08324019241323327,0.026180630374437484,-0.027963995822017924,0.019836526459814666,-0.044347562084998036,-0.0167923532969325,0.009876961157511157,-0.009837796877222265,-0.007786576579391354,0.03741024773481096,0.08602327240181566,-0.015500072877249482,-0.02314387285216924,-0.034129563272024814,0.05730967992686749,0.006573801019855932,-0.06050778692308184,0.020734929009556095,-0.04923467847667967,-0.008854592716671864,0.0709298862261344,-0.09259258098715145,-0.05668859889517324,0.023646929178799094,-0.015240160441406678,0.005213018117920082,0.008892608908116998,-0.06199350938411422,0.054857745802874246,-0.007750879444482077,-0.03676691574366086,0.04297696337596344,-0.060305397223451886,0.005057574023206926,-0.05370301378501001,-0.02394470247140159,-0.004341846172049577,-0.03130803367964072,-0.08365803298063698,0.027101239546731187,-0.016881481251092935,-0.07031349546551566,-0.124926883389788,0.016413845394226266,-0.014913403465126932,-0.01652936950451299,0.05028783289780217,0.022759011182509396,0.005269044604886132,-0.09324040239662595,-0.08710102213788946,0.0107005097360686,0.029802019189609487,-0.00480927896419608,0.06987058859437557,-0.039994431493964165,0.08194954432988133,0.0773915280969229,0.06978902340606778,-0.08174101492969525,0.042430451460899944,0.004534955507377518,0.028804206002591783,0.11288365837317657,-0.0413747054626324,-0.030074452257487345,-0.012581014638793584,-0.012733539129131955,0.03220712932123474,0.058781801518945596,0.05742074457040171,-0.09606246700863447,0.0993507165373391,-0.001615973908564633,0.07125224421411769,0.03648114903383268,0.02214813077121763,0.04860171652301693,0.00242525957904318,-0.03694943944254956,0.08058571666330375,0.034747488800753706,-0.019877374078088775,0.019005241742104405,0.06224776865073358,-0.013626094186370145,0.024635148460054785,0.023849379024206543,-0.05333651205210069,-0.061871179405465486,0.00663944208000923,-0.03662016477538978,0.003542083509426056,0.04243526177629117,-0.02256135103546587,-0.01920321267659705,0.04797520487878912,-0.07239703783459822,0.047740090106276785,-0.10037524290842094,-0.04396332087983981,0.039727541359108574,-0.0012188980789537476,0.04943087973673624,-0.10028665405248616,-0.06236374322823061,0.0913409711834847,-0.023843390994845937,0.04778723277040757,-0.005704584824757127,0.008233623431474093,0.004114852904489833,-0.05382372680275175,0.027203652847497834,-0.025502988262772613,-0.020875118005328208,-0.018610851355437486,-0.03741596083704322,-0.01883352806681865,-0.062313025212802804,-0.004692609049901095,0.028274405387987974,-0.010566563655582426,-0.02913821924666693,0.060772120278486816,-0.04368542843208705,0.027417509733979654,-0.050742971418400715,0.020098955790525445,0.04728160978015609,0.03855812922321991,-0.08599554933878999,-0.011125298411616646,-0.006815662337498988,-0.05804408255768988,0.06117791335125963,-0.019579339781054424,0.033943222224861076,0.004804855326566285,-0.04482564144377977,-0.021368968907011655,-0.045861776020787406,0.03850711965182276,-0.07704977305118478,0.10110213421302737,0.028026513112127803,0.037366902066378424,-0.045769167371401055,-0.036774870675521695,0.03180893677684924,-0.05151703075436352,-0.012097155140550979,0.13020088403989794,0.03467312799409475,0.05331478342671945,0.12245675423586613,0.04756026335787327,-0.034953333634176895,-0.015227420203541927,0.016920552311142378,0.07515620304608464,0.03326207663792536,0.00010065018706854312,-0.03886054721170499,-0.03129868602820886,-0.01529974408133697,-0.01647114426929276,-0.07462653617334243,0.0044082653080731995,-0.08819484471658855,0.06807145712718653,0.002009659577154248,-0.0075671563111123505,0.041208482183171725,-0.006815073004860805,0.08289206440659062,0.0010114638896239403,0.009865076866155238,-0.022038902719155838,0.08772729352500828,0.005566497261836598,0.030322603687929474,-0.022679272066351053,0.028482103380090027,-0.07854832191335981,0.005563019708180021,-0.04495850898093735,0.008894561985914784,0.033702373284746366,-0.047244575343600256,-0.06472850777401563,0.028516324734566636,0.017849053993922663,0.036823141033209765,-0.06799375250699691,0.07957490007272952,-0.06293647429015117,-0.08406625197177316,-0.017292899250931935,-0.07456112047950954,-0.04773212457607463,-0.013496199411730019,0.042873856498717694,0.05532728794830764,0.027294858301935537,0.05953600150687436,-0.08151311108095949,0.11404961281939192,0.0013389715650560085,0.013107500230970943,-0.0545043037589291,-0.02961670599771548,-0.00855479679727083,0.013307927699007235,0.025568539712121585,-0.035848610959887756,0.0578535941004935,-0.09523313522559854,-0.0033143957751249767,0.017339996128986613,-0.08125408200410783,-0.051607238607527764,-0.021083341572899133,0.06104658229439967,-0.06937979187946007,-0.022636617646859893,-0.09009792305979177,-0.04085066240327407,0.025419224934092405,0.0850263613071045,0.10266013199255399,0.07870905173580027,0.07793122119011069,0.013653188558989313,-0.03479666394416485,-0.057773587589007414,-0.01653469125569109,-0.10348733809163792,-0.0338046652445668,0.0452625354146275,-0.039732320737891055,-0.06559199449866412,-0.04512214557438272,-0.022741569626260047,0.026952660656209073,-0.04186936470443398,0.02264065963745281,0.047737400784952505,0.0024049722923760153,0.01939165653659896,0.012334432518512229,-0.043735976743024325,-0.0430309875806885,0.05538630079312407,-0.1135198137046281,-0.01735483965558698,-0.054020421911373045,-0.03876533929866229,-0.041302058803774654,-0.018324043089235978,-0.07108316340028119,0.0359937452060896,-0.08254534602900797,0.005011791551510142,0.037417033010448894,-0.04734050033092202,0.06834168783457378,-0.07918909920341936,-0.05399828620387198,0.06696000799257067,-0.06687899462523404,0.011009283106275001,0.0035397543851831245,-0.0006605470096289908,0.034027629349681045,-0.0208549842488258,0.005534933330763642,0.13591345267453483,-0.0054645956199835775,-0.04104413880879517,0.08583641069189148,-0.004045433067222197,-0.0014188390382354212,0.04803928670132786,0.0013264030925892916,-0.004890413862030866,-0.025915925852160866,0.0287330432833038,-0.02931389403734523,-0.05199011850855893,0.0251146191275476,0.035296468992128946,0.02831469665480373,0.015823686480290377,-0.03784131773371892,-0.03881110584925891,0.01394309287095719,0.005381894982199497,-0.0009001243834131974,0.05825510438212298,-0.010301007432273569,-0.0791340779214485,0.05287850949080307,0.0026673951765846114,0.013054231331211736,-0.010987009197446211,0.1105299896818394,-0.10483027639046474,-0.018214238186237675,-0.01637483530369681,0.013233016609766725,0.030554645767955392,0.017913745119623157,-0.005718753029232447,0.10638257892424734,0.02457728273231687,-0.008048017193235902,0.007101549077796009,-0.0215260326132388,0.002688967508820785,-0.03735006867916984,-0.00225779205141306,-0.0026050370168842494,-0.006047386561939264,0.006418963684145339,-0.036614352211855924,0.041040426761295774,-0.013705533227167036,-0.011116542254081343,-0.008380244450794399,0.006332181264092752,0.0508735126142163,0.0005838078118013605,0.018437978136162648,-0.04987301793752571,-0.00020342121526240059,-0.03270378158324985,0.02194426322378268,0.020730645106940514,0.07576970647368296,-0.0007968335656841243,-0.059118093036861274,-0.02540737291986681,0.03211411063504282,0.09493803613911543,0.012359236827197822,-0.04435258461938238,-0.026951797100655296,0.03864687623137658,0.0594782032807933,0.020375916471549665,-0.012543666260962545,-0.07334194056516129,-0.005229579323911842,-0.013925671956975682,-0.05046080390176469,-0.019468619960075453,-0.02525921597330139,0.019757954309718728,-0.02796688617877801,-0.03001114764676917,0.024920821006923454,-0.068616832310749,0.015225221127416741,-0.04563914264815885,0.10281800171470902,-0.0016761913731878385,-0.038964386190796854,0.0042636515580839855,0.028003285061395954,-0.05802457260197377,0.06789558040656861,0.07041142698377324,0.014592465375007106,0.010309698149298498,-0.03524254470200771,0.031335906066627735,0.08338952361931459,-0.008002891442651662,0.0368171411040224,0.014149758781797942,-0.05139209553229871,0.05775483773939584,-0.020070548031543255,0.029376530938448945,0.00405354230958368,0.053355069365057926,0.03542965590244239,0.06985704709572037,0.07406229305332696,0.05715823600573071,0.020693169550212314,0.021559274548063192,0.08413609014098708,-0.13269866456602963,0.000813130484978105,0.10419413179466391,-0.11127962393789623,-0.0208939743407785,0.007534624053140167,-0.01118962071579607,0.025983227156142374,-0.02425901082445793,0.02632747997874094,0.056756064777444666,-0.04079033320190877,0.025242780672857762,-0.03588692428765116,-0.02588334630920132,-0.021085573543118793,-0.014736692233177064,-0.007122337077463345,0.060129655478700174,-0.039551596945804596,-0.059979972740301334,-0.07337293193924224,-0.05132379443823328,0.07006343738714596,-0.015889888080724036,-0.04437087194314602,-0.10397430479127387,-0.03365101758246322,0.06876198400146402,0.06552079646424042,-0.02290924571787374,0.051954614286646134,0.02087932643029939,0.021006447841523394,-0.008462562945352978,-0.0012541857877204391,0.021798538945474136,-0.03981900916882772,-0.03996377163756385,-0.027715898167940293,-0.003167335475071781,0.06118512778931808,0.07270962848871751,0.01994806579324762,-0.041544395725711725,0.07058042119924184,-0.025050428164391344,-0.05682971149756643,-0.040047353927743605,0.07534552749282374,-0.047485633421779326,0.019025989808568563,-0.12003098257709802,0.033734979521862676,0.06641661518076283,-0.015679071987572346,0.04480598812345065,0.06649627555545062,-0.04528343962772853,-0.038149876194919274,0.11991549158964147,0.04383928865467186,0.10335899272460017,0.002074220615497247,0.014487300912780667,0.05281043280811081,-0.13004882427537592,0.0145104353136362,-0.01053461024966002,-0.030940347399162856,0.03767395517820193,-0.04909242561517009,-0.04542907374075661,-0.07901472667967067,0.050481083725390154,-0.04153314489477616,-0.005104015226890718,-0.0005746180173708828,0.031814944289569325,-0.05561084932643237,0.02054328052069911,0.007298507591430921,-0.0011936929931248117,0.015529836255996982,-0.029643184762539253,0.10774011769188675,-0.05940790048072172,-0.0066368746849863715,0.025326223136872043,-0.01436468158049053,0.024439210477635323,-0.040786011376866535,0.00040700385645110683,0.0716759354570677,0.07111419160307665,0.07473335016612315,0.003447290411970776,0.031522115770193024,0.008820416694191256,-0.02003570192478892,0.01682036425502516,0.02459809081291883,0.03016195195708213,-0.06018761176404227,0.03764506133075456,-0.04955932897898635,0.01563951219073113,-0.06634556465741982,0.10465497146371538,0.04803426237744032,-0.07539506075513501,0.057460431262139254,-0.02065644201399589,-0.019631963086950515,-0.09264325930448766,-0.03218373041276738,-0.005208590010390983,0.06265427155774754,-0.010530043700329977,0.09197065214088876,0.006478987327001046,0.03770100606225464,-0.026610699647073126,0.05532590385265532,0.02766327484071361,-0.06289533080238485,0.027234185600988205,-0.01300446054039555,0.022136694183029333,-0.00818868154700603,0.05105074312436688,0.07525272697337368,-0.02978660452851546,0.030165311629534865,0.07557468202062417,-0.025127357732866173,-0.04762612143536508,-0.09828448375005154,-0.004209352110827299,0.0054551180869606,0.02530769220132082,0.021403992031444715,0.06974029771063134,-0.013918737652574703,0.057002789145373545,-0.020476145706776944,-0.046840728291587655,0.01440721226285697,0.007902110951735646,0.031961174918053885,0.03302072013091414,0.008972631168265658,0.0565687771885994,-0.06116527983425553,-0.029566365226420255,-0.038839029290601707,0.005012885361917581,0.06794658878281708,0.056456364754518866,-0.029551192220248254,0.09061965306701075,0.062790797077016,0.010974632959287115,-0.004823601812324886,0.014172356567972987,0.01798538915711812,0.028246559829152945,0.004661147945249545,0.08715820384972633,-0.0180723411607372,0.03446136409084473,0.01929155210752253,0.07471035614315137,-0.09118021839017683,0.02045649344539348,-0.00988281651674737,-0.03390565752702967,0.04019793618839054,-0.0459083555803517,0.0054509734910134595,-0.062443028370836276,-0.042212001068297964,0.120379515540799,-0.06236650550575927,-0.04794447795265499,0.006511217427034478,-0.04477727603038496,-0.02053360869005146,0.01765798199332837,0.008988361197458272,0.032023451392573406,-0.0380492206887875,0.049122695120855785,0.05872296670854843,-0.0955067143254694,0.023301013475580903,-0.004291718543423783,-0.058045078019920336,0.03194572466600093,0.06886650242877274,-0.06302965420408496,0.002932664396737399,0.05054265127505294,0.008764967002507219,-0.009329788478242673,-0.009456344298366243,0.08060152162521333,-0.01787258748091744,0.037570371497525276,-0.016867156890443644,-0.0815150642906231,0.008229482243067724,-0.04985713707545391,0.01469831344794406,0.014603224679785493,0.029765648967779983,-0.02855501756985445,-0.011525899777115283,0.0508018371640556,-0.0727099352285937,-0.02596466182812592,0.03233896510239918,-0.02833508571429663,-0.001404303988160068,-0.0037807938395953812,-0.0016086873116902465,0.0037662189815764495,0.015312899543690509,0.05477204976231154,0.002332689551317361,-0.11293717541462273,0.058665924461688154,-0.1327184820027993,0.014296482147598662,0.033870461265953375,-0.014695347146183169,0.0049524993147181465,0.011047679626603366,0.07772006324173963,0.01844679526437029,0.0032548819190825373,0.03971860059847915,-0.08466435238787941,-0.084082494668636,0.0015517032391624392,0.0008948851756730217,-0.011342119885648866,0.042787959270580024,-0.028155262286888097,0.024596219922081893,-0.07193457943506325,-0.033886680225556264,0.010058960960306253,-0.030598032435292077,-0.02609265779195459,-0.0009773572943678737,-0.032044135554128494,-0.03172174114684538,0.022698918354116065,-0.03555139628702512,-0.011591289330125498,-0.005764044617483557,0.013092877132800426,0.1059823443263661,0.01899753677961843,0.009127045692704436,0.054040273434826175,0.09159082121441327,0.05493656217644201,0.027479668992229568,-0.0062884546982570995,-0.0010488522472925546,-0.10960655395248983,-0.008641194924293138,0.023786487884391735,0.07734509613410959,0.051975478825225664,-0.04651691181844978,0.007652542661917122,-0.002066439425219675,0.02764586302960744,-0.012226774132331916,0.058018054348318616,0.039717242057270716,-0.04938479613477831,0.042252243795125516,-0.06309015781492737,-0.034738030735950276,0.04012966799594006,0.031523432064451545,0.02610000668077081,0.0004908192503636179,0.00847523454278212,-0.027947056953888536,-0.050159469364930445,0.04452522832524334,-0.08186864153687223,0.05344832714042202,0.06398098860733045,-0.04904037180731453,0.052180327436989304,-0.020431410130023996,-0.0020259736265987286,0.011025597562850603,-0.07184120117693196,-0.033270787102296855,0.004917536001678403,0.008260212748136335,-0.035958043541297356,-0.004495263604821382,-0.09250971448347772,0.06576155725875509,-0.08763596726782275,0.014915297995328175,0.006025697817747273,-0.014477009547375654,0.03498068211835599,-0.0218127941478715,0.006380942072506163,0.015707989284672798,0.04221297611342492,0.014928462029365425,-0.06564344112526102,-0.025151945579832774,-0.031679665231895866,-0.09633028517427168,0.0620700917761984,-0.010706148814485438,-0.026404691493118828,0.13127108809341992,0.023416078001346208,0.0314321944146092,-0.00946725327534056,0.0061810413721174375,0.025198641303030803,-0.050830399900320955,0.03849908159111831,0.015610154425392167,0.006244705886096088,0.07521459841688764,-0.048167076549445034,-0.0397224327874701,-0.033932475609614716,-0.017859192465491922,-0.05289654951151318,-0.024120850795302226,-0.0176313518756169,0.05034869919853452,0.011450757823337139,0.08945336373724234,-0.008490138777155033,-0.07989667246747646,0.004342185307934151,0.022580819315473188,0.052033250483201794,-0.0742184671807841,-0.038530711648471744,-0.10031618662349842,0.022086002418727282,-0.04143400076948706,0.00630236543665889,-0.042608923339362004,0.011717203737784385,0.02257999511745646,0.012040667662350023,-0.04139802615533672,0.05697088376129318,0.02599993677237477,0.04628352383136072,0.05546584971412662,0.022454790288439073,0.07492267784125227,-0.024223643485498447,-0.05199348393946994,0.04352108144874259,0.12565585261171588,-0.01592497217603886,0.06011866905874668,-0.007834330352303139,0.06592402027907748,-0.011935910084529702,-0.08778239903124185,0.0767009291187658,-0.10666415729798068,-0.028896156036913676,-0.027089317323821208,-0.04588086370423316,-0.022580631021058176,0.01351567614766591,0.020369388487200803,0.0030045953400002004,0.004359057912665558,-0.02679783541795301,0.06418862840390488,0.04500544128253391,0.007225623438310993,-0.09369291497128286,-0.015228041291135407,-0.08573759926040325,0.012991835430060779,-0.02909848378549505,0.024576076571092273,-0.0553498576103973,0.044952174389345685,0.07432238795675869,-0.03983682745607088,-0.017912659376192328,-0.02285287833457542,0.09393503068095442,0.02974784757772646,-0.038680877509197506,0.0011181846213061555,0.01923906931399026,0.026374732015785024,0.066767653487643,-0.01873158040272588,0.007889904268992923,-0.0399881247307232,0.0013234469141740431,-0.026578516500094164,0.020168433575536483,-0.06655927302237187,0.0038037210050479125,0.04806289793435058,0.023435432663966728,-0.021923608287001503,-0.03221297798627854,0.0033618790095478815,-0.0036775866110580536,-0.05462139601129977,-0.07115254808048109,-0.009290090643911618,-0.03767039307637061,-0.024619138395687936,-0.07674171034402835,-0.04188090292095761,-0.06479432309566217,-0.005968813885733012,-0.0003360978184782136,0.03709066896854333,0.04369207206225541,-0.04187953233347886,-0.030316177315886313,-0.05291322480045331,0.0222498399115908,0.052980354175625806,0.010610215523851952,-0.03218276593874394,-0.007018382883820067,0.027676875540155632,-0.010486641879906345,-0.05322147784095193,0.03023823678734331,0.015286320336370134,-0.013576366880195059,0.007695439278900036,-0.014147133206381857,-0.022963306667675844,0.10699623314145083,-0.02438609398660971,0.020716508336888716,-0.04471427557319168,-0.03565361698451576,0.019327080543048582,0.027044100029687122,0.035171883362850306,-0.008734227047412838,-0.03572271269015307,0.09470211972605455,-0.12305806369498293,-0.07852579809776768,-0.06767067216892707,-0.06963739379950856,-0.024213034529294106,0.00492916786567108,-0.0721116310430803,0.020875883632070966,0.04642929482623082,-0.03642006272111933,-0.07869150432422269,-0.07807613552511063,-0.08030969225664016,-0.04579326327374847,0.030323653815540138,0.0112048869073959,-0.044815644063361165,0.009249789359230801,0.07783358915668823,-0.0017544432697382411,-0.021555842898201276,0.03757819659758715,0.02133984941435049,0.0005630444759318998,0.02708507631639906,0.02263284898828133,0.04159985717815409,-0.020676367647702663,-0.05089698682286583,0.09135179403243206,-0.025978334187007682,-0.02822886801309543,0.010770971866390108,-0.04075583925076441,-0.011389802811903297,0.042367554860536276,0.021392571198702023,0.018837312326791037,-0.0018889936679225042,0.11601261944343624,-0.01225060088257895,0.04997828385556968,-0.07386762717339325,-0.013380008110516378,0.008907933723908206,0.025230005549477314,0.04319626377856944,-0.028021087922196986,0.038852988698511844,-0.009735901224140291,0.03528501412009175,-0.008198778554074462,0.0071634562261849765,0.06896362729480361,0.03202138905006971,0.021764820018018428,-0.06656024892082209,-0.01406520174666374,0.04881222541316246,0.0090233896123795,0.055867612790077466,0.06957933185058013,0.02611014592421098,0.0705112759903621,-0.005722495065982771,-0.008651473249266127,0.06537212371413156,0.03461284157364785,-0.05537607447503906,0.06700918953833751,-0.02820633471941247,-0.061552327061455005,-0.03264629333858659,-0.005623951202918225,0.017394526091368004,0.020884554137843285,-0.014261710040408503,-0.007111982475963738,-0.01740330722294765,0.008218625646122989,0.027225655462424697,0.03494635385076488,0.07982515022558351,0.036329728269989314,-0.0025913226851790394,-0.02071435865793506,-0.09738955626044146,-0.008738052731205592,-0.05384210195057569,0.04425209837506558,0.033669263905013916,0.032394471996856404,0.06930694340137586,0.04184355440790133,0.052888719534626476,-0.09066431403192869,0.04762552404014059,-0.006479757686690655,-0.05136303053906154,0.07909264965049799,-0.04614404775116022,0.012843844961596877,-0.014033210522651175,0.01836883675241154,0.013551244251892856,0.045020572853219885,0.09539496840512961,0.0013617904849361135,0.000650444756083372,0.052169712473531644,-0.03808960239441586,-0.01781354030990314,0.07726136573089815,-0.009735456250598592,-0.011013969578381607,-0.0028349799025142093,0.00494412674767818,-0.00441003068507044,-0.0762097982479347,0.056599571540005875,-0.14958696413842926,-0.06388874385283036,0.13755649916146528,-0.1300970861070369,-0.032416116392588554,0.05372545594301039,-0.02653956815333611,0.021097316607508545,-0.02628843891601344,0.043389103050295884,0.044069500451913615,0.029769827001120863,-0.06897264802466632,-0.06923780336515939,0.06239798883227311,0.03651922706791593,-0.05663840583223169,-0.004683693505278685,-0.06215841743560275,-0.02934958661023697,-0.016561748308236163,-0.03760539586234134,-0.03225604992886834,0.027785939672752714,-0.05100267790978046,0.05395673469080154,0.02114651661181582,0.0762938654175166,-0.009988452025224422,-0.039804878209825034,-0.08465112229384789,-0.00780911955906133,0.00968817002715708,0.09684140497960217,0.01651820130009451,-0.01730543845903856,0.007551431069863565,0.05578029887860553,0.03711120869878609,-0.09219441397811513,-0.04526840159811303,-0.019823405164829035,0.08079186626647053,-0.0792408880063581,0.0861670435989553,0.002117722543110017,0.01045842504549208,-0.02225604576703433,0.021984860328515154,-0.07625586418877084,0.02799928903989638,-0.017958542711521676,-0.11315083823802427,0.05055675663679381,0.020949649737712052,-0.059247584574566456,0.029595713088331994,0.06025274011751614,0.0707776754400135,-0.03333292584637193,-0.043197387147812245,-0.013200796048460037,0.0071143920179674745,-0.03654806247350873,-0.07233260181160925,-0.03268591523885828,-0.07778151470579414,-0.014298931821850241,-0.0250145006852366,-0.0628009780163818,-0.07570150383533454,0.01356330825184913,0.06814974442281416,-0.032781031159628576,-0.045938908155220726,0.03178516277205678,0.011668770634997822,-0.0705106099794584,-0.026220384346874563,-0.06567028095070561,0.032121986775467556,0.0607241759839269,0.05716298456866418,-0.03972875415122839,0.036285067948718365,0.01024145159654575,0.048551833489347176,-0.007206315194664511,0.07960909188831972,-0.048894733405214275,-0.04807564057732945,0.048456876798955474,-0.006489942375398229,-0.09777805654015011,0.028106104239589754,0.06468888192803614,-0.08433446145961919,0.03824531248605906,0.08248572221024005,-0.02939012813035829,-0.016190038284969874,-0.04040485340503855,-0.03109697485938833,0.02575585433876615,-0.04162338844174007,-0.0031900157406693423,-0.09053111742343256,0.0730900160064902,-0.08274678729959231,0.01610094127440659,0.04804245039045534,-0.031044354439833582,-0.03748240230861724,-0.04428530455485265,-0.08609947684461765,-0.08911656983043446,-0.03561197102882237,-0.020824039040603735,0.0059588135643060215,0.061938746017792506,-0.01200424215643751,-0.06345475133837243,0.017260514286917387,-0.01768671867315834,-0.061027213272439915,-0.0070898032756966075,0.11324114327245342,-0.03847155824651626,-0.016833610582166123,-0.005505435637247962,-0.057727424518382614,-0.028867822014239115,-0.04243057040203347,0.005846472727067064,-0.027511858733330615,0.03255259574382467,0.04672684954253928,-0.008370098314128318,-0.031349982190984074,-0.17865403720002604,-0.08435128206555315,0.019266272603442592,-0.04479221924370999,-0.008731049860005426,-0.06229434997276097,-0.04365944787678795,0.038103954164080626,-0.0013206672045332317,0.014596409295264819,0.0017632739803409257,-0.04480560526795897,0.056231655106545556,0.0035033637713100902,0.06488325295426481,0.009532928776476074,-0.09616586584484395,0.053143922743889814,0.04000775528226637,-0.016910606931572442,0.07187427318332837,0.003266331113145785,-0.04267709454658806,-0.05085474054977282,0.07410178067758624,0.04642335783308622,0.023403966200238917,-0.005676701011782413,0.01965447611958735,0.06255918040370503,-0.11761776455082032,0.054251125924858465,0.019397397707747607,0.10074508890250207,0.04648056854750739,0.024601377729704308,0.030014822060605892,0.048950136180384136,-0.02029516162636767,-0.06713301297848026,-0.09006241822388215,-0.030526725196671285,0.0006193516053189076,0.1331574159712505,-0.02958325456048268,0.10094003867013446,0.11679504471616786,0.03905632626379586,0.03329874552561206,0.03394164827215848,-0.014995067299117917,0.05719697307579461,-0.04852771512216899,-0.03627597773222353,0.015676970398796255,0.07203685357704481,0.008539854901515046,-0.02832956077468982,-0.022063206189003825,-0.04147718045329583,-0.04573046730889792,0.022496887760676983,-0.06743221340483092,0.01192789340121713,-0.040746133123514224,0.06791714130911866,-0.05680080787575377,-0.02793194832633716,0.058193655877211654,0.06121321813343444,-0.0141498458526067,-0.061060490334385056,0.0619018729374224,0.02794035782449668,-0.033341216074007717,-0.021119338113356444,-0.08027354871873982,-0.032113504391911595,0.0011964361063433045,-0.05521235894005796,0.08893120578373181,0.046664046166126516,-0.03880198076634899,-0.023091058102325413,-0.0063021809285406126,-0.05972160672291048,-0.08138899088440368,0.0815477291166529,-0.04669092368228637,-0.03362216438972386,0.07444450924785129,-0.08974717907916634,0.022291513116445644,-0.06431030300222519,-0.04547997734308017,0.023805526375415192,-0.013022150439202984,-0.037108111126173786,-0.021558000915936404,0.01570351718290553,0.018617565742978355,-0.016150903249528774,-0.0548986613593068,0.01100464428665305,-0.022582509339120087,-0.07962727510110996,0.05950764214217607,-0.02532694911880782,0.012733035399562272,-0.05400325034586026,-0.03343469639279025,0.011664789983900118,0.06958056328762038,0.0011619720107417437,-0.05421254572588981,-0.025585715360178195,0.008659121239712075,0.023048091884521758,0.04305946742965373,0.05228209273659761,0.06344976394700642,0.06293986286385565,-0.015464039442680927,-0.030842911630725365,-0.0087488545148401,-0.035899085252884405,0.03551250324763739,-0.023874526984681076,0.07104068013890413,-0.076247077494992,0.04230353284875607,0.07403224680950254,-0.05018259146983807,0.029507732625679566,-0.0204333864283681,-0.02462582142694642,0.027152118377403653,0.020681384631335873,-0.04174547029752666,-0.010562266201479062,0.03690259439292751,0.0427798071535745,0.06148987024163394,0.08713841405095385,-0.006593174018479145,0.017237201102114408,-0.03393450505932719,0.056770667828137805,0.04705312119031749,-0.008408096970680908,-0.022396675450870773,0.05216300114283594,0.06316879485952262,0.06084426188181788,0.02519643020150846,0.0008633508527751896,0.03883985821733255,0.07491248708734394,-0.04649668025872256,0.023304221307150996,0.0001183004130083093,-0.1182552776316984,0.04224526635979382,-0.02122964649089524,-0.06772393931433393,-0.007442768049020059,-0.01757740421646658,0.14360145079355371,0.01839400919246028,-0.03797223714291505,-0.05638361637733246,0.06279047275161204,0.0266825366047566,0.0393178097886724,-0.005411608454592985,-0.03586709977031747,-0.03519524979687051,0.11640451938752222,-0.004995483525378412,-0.0019417452396913648,-0.04670512001910261,0.011792261643840455,0.020462578237792697,-0.06365860090371445,0.08920149597844462,-0.004402170316375076,0.011303189054323566,-0.017406849112732384,-0.07215743997781529,0.05216133013306902,-0.03366552305590671,0.0943136704514138,-0.06295051076835655,0.051448091929218086,0.09802532666823323,0.030491463050335496,0.016107444767068598,0.06119770572411618,-0.00006394817104445607,0.09723193691009506,-0.029681099580784884,0.03599161792059189,0.05664117479317874,0.028264872395383136,0.06715010258755316,-0.00866202116887343,-0.030899977702038114,-0.06916362041182944,0.02463332879379235,0.04292917573257823,-0.03213801453285395,0.11969901157255391,0.011274947142174148,-0.05076881753467791,0.013430354912382005,-0.013293436954339462,-0.00009618152974196182,0.0065132166346271335,0.013904265382406453,0.02329889065498799,-0.03874556210173854,-0.1100201728199213,-0.020453086612545225,0.03545474686473204,0.01272529359415869,0.02093737457264478,0.1202232551766812,0.05868013468791965,0.06375831541937031,-0.0012130044422218225,-0.012795977437010957,-0.015216313258981796,-0.05124553687985302,-0.022955367465613254,-0.02746509660139016,-0.1192073204871112,0.006923747226139399,-0.003035142588090855,-0.032823186189033106,0.04373242602131714,-0.04442364994046288,0.010179341801445344,-0.027173165755166234,-0.04866992351086487,0.015052923149117627,-0.08619571987486271,0.053165421452517875,0.0007018167687506369,-0.021932154001962766,-0.06064857193281218,0.007352524391708128,-0.00875489816979951,-0.04736346000051615,-0.0049103898819274384,0.04958612935172443,-0.02828412063399428,-0.013833567701954595,0.09272346187361913,0.04913680530642318,-0.01623881154776148,-0.02675923956899838,0.04603966126079052,0.032141711693149284,-0.01871261414529882,0.02670684215625266,0.04238626208580727,0.03246326439652156,0.0017026026338798528,0.04437240691586815,-0.043725765426832874,-0.05147822736165447,-0.0319967059550854,-0.05061995177346948,0.024833520394554522,0.024960456611208402,-0.011506535651604097,0.027685762588494412,-0.011470770369604113,0.060383323234828354,0.05839887770647255,-0.004153973318082566,-0.0007999447761070718,-0.010398075855019392,0.027706330636171096,-0.05498149936058661,-0.049201282884076956,-0.06797793465998767,0.11858332470638874,0.07303189510793451,0.051396638415886264,0.04781997646007426,-0.07302916253990618,-0.029666277185713793,-0.048620967011514055,0.039535266564977294,0.050622427027359626,0.05143328355995445,-0.013823189151645494,-0.07572443233576817,-0.051546102802145305,-0.014277802756994057,0.10745326950286,-0.013467556220595206,0.09089399446924257,0.023738677905983836,-0.010555859042917167,0.0497323901526312,0.047825333108829166,0.07558161793966856,-0.028170730975354632,-0.05935241189798496,-0.06133252265019244,-0.010298901985797877,-0.018792705324567283,0.10370480126573484,0.037073999154493505,0.02555565908808807,-0.10811130816857924,-0.07922334269027381,0.028416892969682743,0.06854947673334198,0.009125521688375172,-0.037353575897815065,-0.04203344704924686,0.052800450210357584,0.03543150636585016,-0.07275255190948202,0.025382751666966262,-0.015431446682325526,-0.02173514293109259,0.0005838222693662648,-0.07341995723680608,-0.05441356387722892,-0.014799552868093657,-0.013153690047234571,-0.04075133306566849,0.08447178022124838,-0.034744752756943886,0.08388027013721613,0.03599392822976978,-0.02458178829097906,0.017021069418849795,0.002462416173600095,-0.01548661852154704,0.033710249923618985,-0.06874868038043637,0.06862034738564658,0.001973902181486561,0.017637190621520405,-0.05689810549856425,-0.05886252788902064,0.026296609770168972,-0.08109179016708601,0.01150441610474765,-0.041077751576927904,-0.030466135975403968,0.03295414728024957,-0.020793800845857933,-0.008923482513719355,0.017351300314527234,0.0042535032808871205,0.014313403020830258,-0.03547643388304248,-0.025353940107570975,0.06655175949392703,-0.02651633468666233,0.009331318947409484,0.005020088537620111,-0.009425077683734446,-0.0012740780577779418,0.00014284619549811853,0.001239786776639353,0.04055503208641782,-0.004059380472121439,-0.09081296254222852,0.10420161867512998,0.03416484124493376,-0.03560297570474629,0.024990230563938617,0.01989910178137162,-0.02440083061341181,-0.015748221128436317,-0.0327730004521816,0.00027347437272788713,0.0032000247317893107,-0.022799877771467494,0.011022482834057701,-0.008741531680275,0.08433644361125432,0.03583753696288482,-0.06272833182232117,0.03253071386003266,-0.046413771289758335,0.10224938522705303,0.019995142042920976,0.07484711368499793,0.0003244526116098147,-0.04035915776320006,-0.004051994342832492,0.011503878494444635,-0.078890188275306,-0.036907355809091345,-0.04208143240399131,-0.0019938594252082017,0.020286990521834327,-0.02927119159658729,0.03365561260589801,-0.015287325358694988,-0.04416090804624618,-0.024301155238438014,0.04579714849841055,0.03215909889715104,-0.06501874101184038,0.005137321691725794,-0.0764224931971703,0.05055922165115586,-0.0257006741293941,-0.03665858413216467,0.05244352143005418,-0.05162786385211718,0.023162028892635633,-0.09557106815210444,0.015531357155080427,0.07363044121499841,-0.04060764424495587,-0.010348386407138052,-0.0073758147690810025,-0.007078593938387618,0.012166505926785354,-0.05494829908942407,0.04672592435340494,-0.08011120630450203,0.027806436669016575,-0.035796479928671916,-0.07044377206167896,-0.04412763926789783,-0.013672550679987601,0.06696837568854401,-0.05280912677650488,-0.04136857762277487,-0.0787852359121816,-0.008243592975471087,0.040358910400633656,-0.02551091210874077,-0.02435976226909524,0.036038499113215196,0.1053917054096441,-0.02003566488327796,-0.001965158597698495,-0.0003688760224733677,0.013547023596868582,-0.027541821849621794,-0.04259005419170021,-0.06340361994303788,-0.017448182856050147,0.07240604685894812,-0.03891023365104599,0.03631672993166664,-0.026205216441953314,0.11026662945063119,0.047653605857452715,0.004405852142776934,0.0001703051855039693,0.015900852876470355,-0.028432395950021096,-0.018274846168602116,-0.07362880408649743,0.037273716818392234,-0.024748917875770386,-0.02307268211514647,0.018967907537802992,0.010189791656279786,0.02232178706692634,-0.050705788923030605,0.04987200134434291,0.02698863122071009,0.03519104597427236,0.028756345251731617,0.0792303329610179,0.09251311692490437,0.06846121654708152,-0.04295983304389401,0.04994091521203541,-0.023396710087285014,0.052597992106636224,0.10560015436886012,0.0771356189685516,0.1000723952706481,-0.03043875974656411,0.021436138382398388,0.009753353355042392,0.06348307056233145,0.08556814436948973,0.006109587539602618,0.03631034015431613,-0.024137153776091557,-0.12906215554357994,-0.08583165900931033,0.013160676944653811,-0.04161294882473299,-0.006748692722440237,-0.04333243974863188,0.012662004974424643,0.002995485987721448,-0.004308078365982693,-0.04998153898790016,-0.09534296147135785,-0.029497999677607276,-0.019079285437331076,-0.0034466795387545707,-0.009116273327011832,-0.015278444693609637,0.017562007329135872,0.051632624755170796,-0.013943609108990044,-0.0027715874798890506,-0.0894235402909184,0.043388444190641307,0.08749119187167227,-0.0409734313197584,-0.0933671849514532,0.09994653466145373,-0.05467529200417489,0.03823815042428599,0.057001143466205405,-0.034215600309462295,0.11159445208786825,0.11821782833505477,-0.009674391445491558,0.018742725082827358,-0.07022796739214894,0.03901966144661983,0.010906049289666498,-0.01443268888657692,-0.018336134226166097,-0.04310351164178511,0.06201527822946946,0.059550096485450565,0.015782839129306236,-0.000931248062946836,-0.03918415819219524,-0.02982366306788862,0.0478300757722358,0.031917007234716445,-0.05839959975792303,0.04978838443752942,0.01282879276379779,0.011175768235611474,-0.024078631685859154,0.05775094589102996,-0.009858245868607663,0.02647953893937294,-0.016276184322314615,-0.025571386894281484,0.053891166596644446,-0.020093951182030403,0.013751554991875956,0.06332604148232612,0.11639481193493614,-0.025959455900952815,0.009805145966685474,0.07900190598553868,-0.05482562859727129,-0.031090726758326033,0.032293546774261085,0.0025664881801824376,0.037388069292950604,-0.03721477402090112,-0.027160499582227972,-0.027511525819696434,0.009921992235234775,0.06449417959469256,0.08028481540577043,0.002173996943740836,-0.09003801430435426,-0.053110604701688366,-0.016881728915076753,-0.031793759815778845,-0.005082205762677931,0.018206539286956144,0.03150395013649607,0.04282720782274503,-0.04714878538575708,-0.04042490325111765,-0.01736181817398775,-0.08536333163699251,-0.11372068401066283,0.06003792669223901,-0.11392967813712412,0.027333540613927208,0.030529516577910136,-0.055145346375986566,-0.012326941843542601,-0.04550369865595655,-0.0805544958770981,-0.09008671633256533,0.002950222029313024,-0.009662980457071759,0.11689227659293758,-0.037201701049661695,0.10861544172485427,-0.022089233546549066,0.06987041626757183,-0.01688028961290313,-0.043251345290557915,0.07046992193743082,-0.04020264303384054,-0.06181091481987952,0.01909256141562814,-0.04966710010625862,0.09144656104090992,-0.010589671718126076,0.038365945991084026,0.047138922032955215,0.0015307108130363798,-0.03870232824182144,0.020074707850017658,-0.05464065122989648,-0.0011948640165140936,0.025807645244834573,0.057235540592230204,0.10088999277244347,-0.04638931117495366,-0.017906644971084944,0.008646246352719579,-0.009454218033002148,0.016042230177404405,-0.023574005643018175,0.018125348449039524,-0.005506698550916182,-0.035695657761190006,0.014348767140268993,0.021744286135535047,0.008375517701652803,0.058815431806302686,-0.012501936492490298,0.03674454739571532,0.01721683802336557,-0.06037492749672868,-0.007139924574612313,0.08441962008921733,-0.01683028751926886,0.028547062428441423,-0.013137136332886866,0.07699653559938115,0.018847041547953174,0.08035681700423583,0.014225473663610327,0.03353576195229062,-0.04493108709508131,0.0010369841200210666,0.050901448329026544,0.005889587537243249,0.0854929289437542,-0.0035733499089524137,-0.04100310249679287,0.10281642967218305,-0.007533456076459691,-0.03226477669270009,-0.008846201029923676,0.03368630671798653,-0.03066717631395225,0.04966983673979836,0.07053172833663805,0.01216100592720786,-0.07787992840153714,0.0715320621474605,0.018293383516176938,-0.04821235682489773,-0.027961119883884583,0.0013617762323910312,0.003875496056032314,0.023558504103439792,0.09126416132287775,-0.06903230268645702,-0.035379857666576656,0.008335989958903686,-0.047548176296611594,0.007063663775895728,-0.127436614153259,-0.07719481805966534,-0.017190131469717613,0.01723028059710358,0.059903815508410264,-0.011208957670122456,0.05695866532668901,-0.08241574250028441,0.0513773646355569,0.038071547506233185,-0.00805586959388486,-0.021952136309327526,-0.0601287133790382,0.039878041565880325,-0.00032222788099015986,0.024980384594731696,-0.04952902541979238,0.02941183179067476,0.002646714083711473,0.09046619948907753,0.11236926803481372,-0.05460680802899917,0.03557857671168602,0.02855678905596523,0.03802927674828854,0.02446321673621523,0.027927276238542614,-0.01521699057918313,-0.006556121885879145,-0.005941047383200192,-0.01550333880538159,0.020418308160562,-0.0798414061884495,0.04535372117200788,-0.08650619834103415,0.015300945083430594,-0.0014877085072664514,0.028195714817713862,0.04970098488394022,0.11944275022043627,0.0446470448948378,-0.018022130263916587,0.004652964908667747,-0.14926389508206922,0.05258445725620601,0.09118260404531071,-0.021771269125620083,0.001334594021488805,-0.014564783399243072,-0.05359650322062014,-0.016961212852610045,0.10042962576916205,0.007615661356619102,-0.07436028614481184,-0.051061540735393145,0.0076180577481711744,-0.004779489120837168,-0.07125568455242466,-0.04843563826122321,-0.06562049047085065,-0.018600557566722787,-0.04247971610725813,-0.0012550740779287883,0.02689347453609661,-0.07881634662600506,-0.09387349286066539,-0.07305702118080336,-0.023146646279411275,0.006734367261261393,-0.05788923084175869,0.01928236221525,-0.05210451144699618,0.022026324654825,0.016446605567079758,-0.007571099195653218,-0.018755441194998324,0.01845556128261117,0.02772523646680316,0.017165028205631115,-0.011509849761257981,-0.04131639559169372,-0.015728340327791482,0.032884183793106085,-0.024976387420541216,0.038462019958850145,-0.07428908952547505,-0.013960084504821859,-0.002361723115365333,0.11916047127483889,-0.04345689765562727,-0.018557604997454555,0.00825591663615321,0.014711557748741987,0.04087777934453747,0.008476228459530489,-0.06492528816997972,-0.04149582375843014,-0.048154158072039176,-0.0011847219000801418,0.08863742609843114,-0.12013194256823519,-0.01696217020965297,0.009718793079495693,-0.02683438538904045,0.004459649484576201,0.06263884221620437,0.10353387446917901,0.01825673870661826,-0.018068576914653786,-0.015796982086302334,0.05877607459343549,0.05897426054330442,-0.04247473311974402,0.013263768242792462,0.043401046207796314,-0.0470367364683204,-0.07886329601745538,-0.034916339875741484,0.1061773729068064,0.02591493319394726,0.0010217767502155607,-0.023466615757893147,-0.026670794677815125,0.05169786789968049,0.04340099867188226,-0.04649216843399151,0.030231926873440076,0.016631650176321806,0.0834063841656074,-0.0032428354449887857,0.07321535147714343,-0.04271719895426004,-0.03395508480512353,0.15142642100583567,-0.048500781021914796,0.0029028353015356253,-0.020639332213840015,-0.06274495293450934,-0.05894323072582977,-0.04420174667490419,-0.015201216128366526,0.003636357376813426,-0.010686214078550863,0.018489555173943597,0.0447959262407412,0.010353905885351296,-0.00922021498063582,-0.08139988992479909,0.008693276648365519,-0.043827848147280045,0.06097038502674272,-0.06386056622097816,0.07801033909307162,-0.018886761954984694,-0.0710089025650624,-0.030820903850579416,-0.0016861239915594145,0.026555956994653268,0.023479565454299935,0.05279630699873518,-0.023357358978599058,0.013866183028418957,-0.013881740465482536,0.027929458026988548,0.04392256406437179,0.01265118461114078,0.05541048446134335,-0.029057481727597687,-0.08252481585150655,0.16901306272721495,-0.021054861048862478,-0.055021725666850416,-0.011574421496873388,0.0197788614024816,0.04338410151168084,0.08794902284146883,-0.07727638693008874,0.000841174609923957,0.019172247171344865,0.05313139084049244,-0.06797193429851615,-0.012985684842868168,-0.056418179115072235,0.011846886405738772,-0.0921626782438466,0.005240328710761076,-0.060027386898350306,-0.061334510806215076,-0.0095347489120213,-0.05838327867057327,-0.007674333324118013,-0.011664332550586977,-0.09267051573075301,0.059146549145618586,0.013330839276504759,0.017040669118897345,0.018840573819014245,0.003432005518855429,0.03266735448133521,0.024224533654703763,0.09605891918754351,0.04361718311784731,0.008190881864328224,0.03478464028971619,-0.050839544465477886,0.014509750967836224,-0.007823751376540674,-0.06280694560832824,-0.013323214054735874,0.02172504689860865,0.025470261237256105,-0.013931257028477693,0.09324909003183585,-0.04284784818070157,0.10735805584095304,0.025607666019863216,-0.03723396089080141,0.03991091867068355,0.00836354736455057,-0.039470501154295554,0.0036576253890836822,0.06202519652876874,0.11611929015349592,-0.0769766378456888,-0.009828223814725551,-0.1861296737043111,-0.0519004027102491,0.02287632443945677,-0.01599477086473437,-0.008561761830236696,-0.11602885398363508,0.011287779058449451,0.08932194188975794,-0.0013973520384913862,0.020804016853782803,-0.0298625017175193,-0.055169481071883505,-0.01892787513393321,-0.04283779039681374,0.050714058540876926,0.010065653658098066,-0.11953955374998713,0.047698535475366274,0.027103212137350705,-0.026777105693671293,-0.006180762625915877,0.012045887328227497,0.0472683925361698,0.02910990798838928,-0.01992577014561227,0.03861772385520458,-0.002675713679982516,0.019074497365216693,-0.07286149400946897,-0.01372441755238833,-0.009274438352546653,0.01952856903796519,-0.03424815611316201,0.0593594552963546,-0.03662920831285821,0.08959716372816154,0.04673237036312756,-0.04670294637302119,0.0561507121327907,0.04523590753236448,0.01743598852402899,-0.0010841145986293871,0.0680715586603417,0.07295890238521308,-0.10279218501499642,0.0020564279371585335,0.05121377110895022,-0.05654641093831897,-0.050267441280159475,0.05673882330326201,0.06012849364374351,-0.000737084367749494,0.04933303850645062,0.02969233449800414,0.06042397396856721,-0.044575817839597784,-0.004322818140534069,-0.0016781998582198253,0.0331855785259229,0.00410091989700732,0.017837486276292506,0.045994590949714996,-0.05733005282926949,-0.04351901002961833,-0.001016709691869716,-0.010991393486116347,-0.05798094319779355,-0.04743431168542914,-0.048658647149512214,-0.016059487268844642,0.011379199341067868,-0.009898189882079841,-0.19535441329462266,-0.02586807640924103,0.02023084393359102,0.08837355076733028,0.04394342883140162,-0.008222085075354936,-0.02979855110688967,0.038158326837873055,0.07679867642555804,0.05501035739339818,0.05859951892781397,-0.08081143967463678,-0.02161857151851677,0.06707884304962496,0.026627825747619092,0.017968788027195835,0.07536747492295576,0.058817532468073815,-0.020760390257881418,-0.06467390583057077,-0.025102363590043898,0.053921224400145656,0.04810102893904315,0.044038133533573734,0.0808668776512018,-0.03521786456853831,-0.06389067788177823,-0.13362003709327452,0.04893188622190793,0.04199687374323304,0.04002387740198438,-0.01907748825290564,-0.010660443482345286,-0.032454287614654354,-0.006638114480515825,0.04769346962590916,-0.005565437449248668,-0.020666488381601098,-0.018117969559353783,-0.04670444152659007,0.003106988988706448,0.07284743228079774,-0.051937386537711794,-0.05632283646762297,-0.07256217537761236,0.009214598953548347,0.056891077882973165,0.04998894671826621,-0.022163579319823972,-0.0517884861745732,-0.05835933304572183,0.01860985755343509,-0.06265991637789906,0.03208746617626847,0.037624952472832596,0.031965495549982376,0.031561209572724805,0.09035408384134531,-0.012945195570046086,-0.1049518258718161,0.030070102092467747,0.01635046404788674,0.03449623848404116,-0.07438583596993344,-0.012389446271603153,-0.058704810514481766,-0.05617314714567082,0.010125512490985976,-0.0547140057742112,0.0030583880962147193,0.04553981799964995,-0.07928756423003977,0.007911700061321305,-0.0061834653821480545,0.024064469680160978,-0.01547533591578597,-0.03485031581946507,-0.06452391827773815,-0.0546369780127018,0.0031446097772912084,0.04434089146093883,0.06392217686937635,-0.050340222430453704,0.0011522586856467236,-0.047028070808194995,0.029183906911950448,-0.0499056746958232,-0.02587003660542439,-0.032619091732210635,-0.07482862811773969,0.003712735623737014,0.04171925517238729,0.007385759274476895,-0.008992265189785121,-0.019014626172405773,-0.016426832911096728,-0.00031733466438284627,-0.004434737299852104,0.012513608067570797,0.13520034707906198,-0.03996135494542438,0.030879178988288753,0.06057574152253046,-0.01767552644250457,0.021438407751798037,-0.020329278043596428,0.058756834532840654,-0.05596758651633774,0.10368959268531974,-0.05203265112294433,-0.029879065773754366,0.020513962636080206,-0.05471174399787024,0.043614253360310835,-0.05732667253797378,0.0150081287112829,0.0027454438667763913,0.03140530947663886,0.056042251604524175,0.08840310747416576,0.09871679995463091,-0.0046949164938264445,-0.023145988353954036,0.045426951542192374,0.050032200767961846,-0.08207381380411678,0.1022779408271488,0.0043224514590625785,-0.059800781756705196,-0.029022295468812034,0.014691374787685304,-0.042388596011944994,-0.021273331106266804,0.10033988652167324,-0.05766969343768141,-0.048542424564749206,0.08494439361546709,-0.0321662222414639,-0.0009563222986485609,-0.06476768264478963,0.02010847750294728,-0.004333841169522678,-0.00792452514517517,0.002710234200057826,-0.0020690436549554727,0.020966404089921464,0.014230441954982966,0.04950406693065559,-0.051620415117459226,-0.00526712463437276,-0.08271306185632886,-0.058942674524760985,0.021153240643661524,0.023476052845715578,-0.03548506540411595,0.027739910720011186,0.06611683135875536,0.01813360119350961,0.04219584308545805,0.034376455655229086,-0.03026169124067194,-0.0010937875731780484,-0.001696866551378973,0.022036774251423513,0.007331146275423355,-0.03372986422704793,0.009879779836245746,-0.05211888221017216,0.06855826304959584,0.0018292174923151341,-0.03620236487953073,0.009377319286203233,-0.006923047511947406,0.03815605523358028,-0.052789462942042266,0.0002346140216168668,0.028361884100238044,-0.07197095904459723,0.04587926991357848,-0.018610995150942077,0.060136526901490614,-0.01868402731506765,0.05435008301977913,0.07336919556565526,0.017465600351197888,-0.039674613762517845,0.03175074420505191,-0.022453538296384818,-0.032842611572302165,-0.05204930155954688,-0.03137279824778093,0.05799971696282322,-0.047238698206722836,0.09326226409146242,0.021093895510443432,0.0221989846756696,-0.07702673938887007,0.052466416004296135,0.06241297985514835,-0.04031326735294985,0.08928957988719104,0.07487509374526442,-0.07006578244633224,-0.06057033444218884,0.032432475806165616,0.00019070075319090908,0.06614015377400685,-0.02500052689145717,-0.057127025048584815,-0.05624600690796319,0.027406034988685227,-0.012631600767639542,0.04577844132291563,-0.09988524135881398,-0.07789540763545402,0.09443399618089536,-0.13675528252737892,-0.022943745886194238,-0.0382374015066254,0.0458677364742593,0.0966352837715642,0.0016458076816832558,0.013849243460227437,-0.020846290237371758,0.06561287044836049,-0.08894479136118472,0.00630768349299259,0.0323679390594968,0.03937636514504531,-0.04631971749443203,-0.014983547662883123,-0.03136189134459062,0.027502385096838448,0.00807997965286873,0.06619269230717967,-0.009691668696105542,0.06444115054472258,-0.05610422945325187,-0.03981599764192362,-0.0036427006959089737,0.012667253477415359,0.061759462031195554,-0.09026589864535514,0.0321978885622068,-0.025575427828872913,-0.04497322137898532,-0.04018640243350081,0.01972092750976745,0.08804440954495284,0.054884248599657695,-0.034162570082281365,0.007026191505933143,-0.08040532004564255,-0.03779983082020959,-0.0031531152210388306,-0.055888493026893,-0.05586724476174637,-0.04356000914133072,-0.014781791513270848,-0.10561079924829173,-0.09312660391844928,0.010205159376574454,-0.02284868711191998,0.15577897753235365,-0.016104942818121845,0.16043135945483292,-0.005398845894148237,-0.02876050174001312,-0.056079578293264654,0.02095618427972138,-0.06151119289949769,-0.008713978529868958,-0.07745520920749799,-0.06560181640000204,-0.01974723083929411,0.061713496622237546,0.037838696358487356,0.01119635520876171,-0.09242109275214706,-0.0073589224031326604,-0.057594781228260915,0.058633241668538505,0.02938387176461893,-0.013478807885566242,0.09730302569881608,0.043533686013922636,-0.01012334996974123,0.006810182144052828,-0.00926720611675114,-0.031069867387707104,0.014746182067499093,0.07983011372166696,-0.10065261289304826,0.0729030115769662,0.11370758436951321,-0.0365661076706608,-0.048060744409803326,-0.08843647858419845,0.10835879263524097,-0.052868682763077615,0.004067339958488846,-0.04404360040374131,0.017805278831043114,-0.0023709540444065485,0.013307201289392173,0.0054942200447829995,0.042074588330597504,0.07939794139613184,-0.014420045645418158,0.0347097295670992,0.036559425323633175,-0.010453222630652386,-0.008646576766386003,0.006697826729618036,-0.014116303278984844,-0.003708258223380822,-0.0768332885606903,0.03801524908345387,0.024217859034785478,0.07334591884888586,0.013192935570695,-0.03439005113693508,-0.07540812939914833,0.1589142639741039,0.06012985843599973,0.03834136369956415,-0.0150906569100809,0.01436501841470693,-0.09325968896012145,-0.007552577727330022,0.0953745352381075,-0.006283753985387507,0.021857347697275945,0.011058297994456635,-0.030688516692920085,-0.11029215295706636,0.02205535419413909,0.12004203708270395,-0.1050954787949408,-0.018831339121775918,-0.08031277099752497,-0.03705772998108138,0.026727131376846076,-0.031204955110299953,-0.003383526268613506,0.07316665856291746,-0.0014634731018001229,0.04318734345137082,0.019891579552179246,0.02619234214152626,0.05706708646127212,0.09723346360981502,-0.06163248863709522,0.008978475765841494,0.011709216171285383,-0.06822070695887714,-0.021968330063190485,0.044400043548329084,-0.06998315202638246,-0.09900955999579987,-0.04567220886113661,0.002972287319383093,-0.0614741823865747,-0.01908619283512015,0.008922347018922467,-0.109180408864158,0.01487207292144844,0.049841125260184076,0.05497144932647082,0.010752162548122873,-0.016692590053610023,0.04515012379614424,0.042383043765047416,0.053051503777009776,-0.020407126588712094,0.022145534166989632,0.08602155566553624,-0.024904807384586128,-0.0632869143560876,0.08892898180650505,0.04665778746131285,-0.059881506963038275,-0.07128861091523701,-0.01128607314772543,0.022943206862455292,-0.041088622925263246,0.009795223930417369,-0.05117272700653247,-0.029720566805737068,-0.005644602598764334,-0.012659522232238402,-0.04734154453486862,0.07254217404590312,0.06727833095238475,-0.0032652003758875023,-0.021763562276902283,-0.09574851076913397,-0.04213926645251118,0.05668257520701574,-0.03219181680353842,0.027655474889044112,0.046661886678387825,0.0787892171161131,0.022901286237649594,-0.037865017371195714,0.011634693076811977,-0.058681796163828404,0.02773779978036261,-0.02087121650657043,0.02276285660246987,0.11538528250535858,-0.0158734085226874,-0.0008096335452330126,0.006496455896907136,0.06408561106340001,0.0018032514784273792,-0.010401962399717043,-0.03303568711399155,0.052286040901946856,-0.01215658073911252,0.09137403986889704,0.03176248316176178,0.08040269516490557,0.049683173844263996,0.025594038506264297,-0.013338569045067264,-0.009974148944460828,-0.0923782316375915,-0.031258562865637496,0.08846253684920985,-0.05847049712896059,0.004713592806820827,-0.1062620055077367,-0.06300577734871463,0.0041456902699553285,-0.07668092952591568,-0.04909375263827812,-0.154061970698882,-0.004588168803802331,-0.03049265600809351,0.0027280279947527724,0.011040223012751095,-0.05203158665957222,-0.0530516935542247,0.07795944658226991,0.009514184778862702,-0.03421893673071749,-0.011932911603798148,-0.01002390164257611,0.09350986639705522,-0.07282831046115071,-0.01392424525824913,0.0016433686403826264,-0.026966529960510636,-0.03689889317126871,-0.043030871476492066,0.007548873617707137,0.04787598369744395,0.005348011628848847,-0.01470647394532128,0.039672579880778366,-0.03387260274934383,0.0025295818661322717,0.06321721928827317,-0.06924717975538763,-0.030358980588377493,0.0015150385274820678,0.04206514237125325,0.03369563766439995,0.05287070692294844,-0.013044907417190716,-0.006574285065666018,-0.05604384267300761,0.015283393015745123,-0.030761716152778125,-0.02674437042754965,-0.030944166247217738,0.0041362732685315705,-0.009217257682661748,0.0031705926591173972,-0.031732571711451135,-0.0013591283520297923,0.09686697971178623,-0.001907477908716186,-0.09022814921635365,0.05602623878664377,-0.003590464533449951,-0.04353646707927039,-0.044672847337616846,-0.012812029852746808,0.07230537397978631,-0.08588125225490108,-0.06626727359095097,-0.046925296126528626,-0.038276904791487626,-0.06402183906789642,-0.012729247652968421,-0.11097553101074749,-0.011755289111695278,-0.047158796197188955,-0.018754254685651117,0.01853000902441036,0.020152545781427004,-0.03443513190440121,0.07428371049178856,0.016472729226750846,-0.0019419166913021784,-0.05441515418275352,-0.06199577375498884,0.004706590217817578,0.12921573219963112,-0.028427924927306655,0.07406570965268822,-0.046340060974496784,0.04957123992798648,0.022889389875626935,-0.04041866357251108,0.012996814943582,0.051941169377170235,-0.02244187141826953,0.04998443347342231,0.04747966311658157,-0.007475964346855646,-0.02063724178490712,0.07949055982625261,-0.01690839877632488,-0.03848535319635541,0.0369989526458848,-0.13939171640591402,-0.06905142802213352,-0.004401332583366701,0.03053898951968865,0.00323441914565597,0.0616783604929547,0.06931872020561833,-0.008413144091045434,-0.020921079910894806,-0.03867381590148498,-0.004370589604686328,-0.04102062726428733,-0.00615474949960838,0.0289241006818737,0.018108495532871947,-0.025685547896410883,0.0036084408324013775,-0.11654491177876856,-0.029158862565005536,-0.05247474195105597,0.0881507674088702,-0.06874641441905076,-0.04743426615940068,0.0279544279559646,-0.049112045614801585,-0.03968738835944917,0.05201923510321267,0.054251261739982605,-0.14369787316675472,-0.07300130382353497,-0.02926687422010573,-0.06613911617901656,0.07278181378713926,-0.03872134720991934,-0.035718925590668284,0.06735530371366844,-0.016667781688077078,0.00023745372924824254,0.0166886685524002,0.07306427268568673,-0.014589481896580072,0.02781304779899345,-0.02862164583907983,-0.020997770440450106,-0.034520979828721494,-0.1459432204293787,-0.04359903077879231,-0.01890704645509061,-0.022290504847140458,-0.026459977769663405,-0.0442476583118295,-0.08808417016698987,0.0011161937258428083,0.06296927985101991,0.04438835742371744,0.06944568340864829,0.0320727062613585,-0.015835527712887775,-0.12822540104532362,-0.09044752056304899,-0.07426097540334993,-0.04972392073454747,0.04565095278731022,-0.011324217506037675,-0.022916238986495162,0.07286366515301718,0.03788558040381682,-0.017424215379014625,0.022483940840145128,0.03937331516916872,0.08709417373454165,-0.028867894884377212,-0.01975206260539663,0.048121960737468654,-0.004849642338767123,-0.03568657118939798,0.03940906054954254,-0.04538258304220035,-0.02315046733377929,0.07444275358286612,0.024331780864693193,-0.09721108689982937,0.010466739532491947,-0.08485827971768523,-0.015396687608376213,-0.07987986803309141,-0.00033453761929588577,0.0823079040290791,0.01335586184636172,-0.007563533383940797,-0.05571802072619246,0.03323239962204157,0.0387325564361298,0.0035729062373256204,-0.019687133159794593,-0.0218518435187969,0.007989412461747307,-0.01462245949748576,-0.07146997411819705,-0.0187125638475294,-0.046213909933569525,0.021450832385440106,-0.077598984720186,-0.0005519706202109751,-0.06228126471649574,-0.04608460772769423,-0.02826377719255264,0.052523834914492876,-0.05484204022068156,-0.023983584021467472,0.011326126413034788,0.04574551555245476,0.020556835848081465,-0.04464872326053522,-0.01912762606973941,-0.02255611413866589,0.015102305781149246,-0.0037281730773321272,-0.01880650420748619,0.017073301587220893,0.07237704524949615,-0.006065333724822229,0.07946539697903436,0.06949918297908769,0.05990031959418247,-0.029115769632757513,0.055858415177309106,0.024148440364613315,-0.006623014710989729,0.026282092683073455,0.008865087733110892,-0.008328710503805669,0.0014787098775860864,-0.0719527825534435,0.0742171151061765,-0.05111173172338296,0.001940210671151297,0.018399844469186577,-0.0004085914748209029,-0.11448145984761077,0.03157298789112221,0.05025104899945136,0.06611339444714621,-0.07509585649149308,0.007814544862570199,0.026008406666527553,0.03728541649268895,0.011949665296416995,0.013887786169746967,-0.00021313209991547178,0.038111866989068634,-0.011602822972409195,0.06251436548249054,-0.030056988114164754,-0.028623886959714212,0.01597063595023037,0.05235228442145841,-0.026791957864832842,0.06306644242349822,0.007886274068130491,-0.0066709667933385446,0.02941214388550533,-0.03499816445243779,-0.0031853328763624283,0.021220110588210817,-0.017390544685145497,-0.0027236571949785754,0.024532761258895763,0.0109846095431886,0.01284748115927026,0.05091367447557586,-0.04405343713910471,-0.02234593961384911,0.0002504457154666213,-0.08235317644184506,0.017339160537809078,0.0022769918641303935,0.005436309993101935,-0.04304437486857567,0.02721882211563551,0.07589340705427618,-0.03542318463203884,0.016819541126499266,0.039933581900865704,0.012326308705527894,0.043166321165244166,0.01850801738482126,-0.04665785396850448,-0.059000521927574406,-0.04359116212494734,-0.024613535889920508,-0.018063212482970128,-0.020092064616727526,-0.04203452785719372,-0.033747987799850665,-0.029565624116571654,-0.04181000751282166,0.047645086587446046,-0.0023394892157690026,-0.04927543974527251,-0.03894446827260438,-0.0561910323875916,0.038768034089735504,-0.03974906235352108,-0.03346662299746986,0.004581041315162663,0.004317309265828669,-0.0018942225597699189,-0.043294924158030705,0.03962806654965992,0.07395873151955977,0.012647055158892383,-0.0023833110289794932,-0.013687406241146399,0.011292339741348873,0.022220375995318887,-0.06469496974265733,0.08438083799860055,-0.02683942811085206,-0.017960189197443906,0.03090730308063138,-0.07455308540171601,0.047695421519960986,-0.01355403364421643,0.14670242417236126,0.06766013212493521,-0.0017934652527189664,0.012599001373971274,0.005275860196654371,0.008947027045404251,0.016038148474966183,-0.09212151793966496,-0.04485590829632525,0.0821449069634703,0.020721125438931315,0.027723449045770638,0.031057993674801918,-0.015999321918072892,0.12620220111287922,-0.019676390357998525,-0.030311460384711355,0.009400691781856717,-0.11986483279925048,-0.08351028804348283,0.022074313159880524,0.07296600214014216,0.03269132405753675,0.007649789349946532,-0.025301836283573877,0.03183235778071909,0.035539969192142265,0.04892865412508858,-0.0044371847349371375,0.02032849827231795,0.04957064571361337,-0.04660059088117537,0.019461140181803324,0.02246860709722844,0.09541429040070215,0.05110553561773432,0.1011061779101433,-0.07200463298076724,-0.03844934758912471,-0.02178040928409115,0.0008446537736248212,-0.10187255311490016,0.034098173435168806,0.013550425300710605,0.053672856173426285,0.0718933394201759,-0.08001534963876722,-0.07257219072784682,-0.08071189676670006,0.0005610631792533516,0.09184407175888154,0.03922935563502583,-0.0687692393894139,-0.005408752157389178,-0.028544955502647785,-0.0477256609283067,0.03748664926801718,-0.0050477170489213,0.0736849013338308,-0.07315302108224989,-0.11300334515530111,-0.026288678085633392,-0.010352605192261423,-0.03418479546681212,0.06747732137706482,-0.013352387011217794,-0.022481978817397528,-0.01230674329862605,0.008331026318334234,0.09788005288252001,-0.012735060569548547,0.05222298181278316,0.03426636145601772,-0.007648694444902445,0.05113912639634247,-0.06136593865787858,0.0006702346101340168,-0.10853280084918086,0.05240028951437499,-0.05361634790742333,0.03084452567760833,-0.03294125649501059,-0.03015715481924428,-0.0791175316246862,0.01394566568249038,0.11008615017405589,-0.0791180297830216,-0.005418902052438311,-0.020032523322135815,-0.07963429220045455,0.02278594812978063,0.002392547214095618,0.01291374470505401,-0.020253515102119746,-0.014003628981493172,0.00777525516088147,0.012164234537504025,0.044806491629584645,0.005429487617705771,0.03576361599789058,-0.035736651542985075,0.0255990241305356,-0.08443246104700769,0.0018149395282652182,-0.017873438711151067,-0.0050502516260683165,0.05002889318750865,-0.0389970733740173,0.013891808837325045,0.023137398742639075,0.00027593795113191593,-0.030411871890813402,0.059371351791031805,0.022988811441632083,0.004435333739985516,-0.0033472515296298034,-0.020605869784876416,-0.035908460668154604,0.10905867537982032,0.006923550513977953,0.00808602720162008,0.009505671977749514,0.0134643518959105,0.02085899673636452,0.04196947543389118,-0.009876891743799732,-0.064411656453477,0.06310458403426135,-0.007474120878946101,-0.1176059118824369,0.04563304184243927,0.08259010990024773,-0.08110741720578657,0.05732694434201261,-0.021558887942351532,-0.026573376571535377,-0.054169911655274156,-0.10131900705576857,0.013664433501668963,0.0038178790341774466,0.016088163667375532,0.023626365178485688,-0.0367772764656408,0.04011059488573628,0.061067931629363,0.017159227101491446,0.010569143905916704,0.0403611484524359,-0.12983372342394914,-0.0863472215809642,0.025754785807870773,-0.015301213002167306,0.012572352489822388,0.04668561500123513,-0.03231583249305486,-0.06459074312174848,-0.11825188966383653,0.046369029751723266,-0.02627603961770415,0.0967232170252599,-0.03611645683410469,-0.02133204738186948,0.042691835200184304,-0.04686821594286257,0.0025516235490374837,-0.05771969448512879,0.009051850257081407,0.03018337734124498,-0.05108460294781941,-0.005408227704645825,0.05181315507218252,-0.030296984397499904,0.004290216340439857,-0.1406117491305975,0.038809674373797225,-0.0046938120224491444,0.06174744527550019,0.056257550027896924,-0.011638123008454791,0.009411067285337638,0.006705513756966686,-0.0657115910895796,-0.001206082033085806,-0.09528081387590359,-0.03145024095600969,0.028569280657802096,0.06185368743715723,0.03926846908585036,0.024230472321462557,0.01968208996902909,-0.06291773479229786,0.012794327147205646,-0.02741839216025753,0.08512397987251268,-0.015876165051326913,-0.0646801045698085,0.008419072744470221,-0.10990454592738984,0.004950102468347031,-0.05047133666828466,-0.0347970084359501,-0.005820780472790454,-0.016510012501138687,0.03693454462832749,-0.002026289055618727,0.0028940970366130975,0.043436522108479834,0.011276077888603856,0.043543524389253935,-0.0377856726610243,-0.03662724845848546,-0.0010938565165336256,-0.07190528220922843,-0.061792441610310674,-0.02275577730034058,0.06869743560665902,-0.089475154506898,0.053154997311622675,0.07202927118250449,0.03992835699577731,0.0056568511583293,0.015214687464836044,0.021000247451413108,0.04545086243921935,-0.017957462880322198,-0.011056258244479391,-0.05908668328936191,-0.04628316807481717,-0.04444984970896907,0.0011830497933854069,-0.059469572358802604,0.012137986107161143,0.01873593446835792,-0.0063879288854964186,-0.02871637177079338,-0.05125079170800052,0.010256228732616241,0.06470890708261198,-0.041810749463088014,-0.031062607421064186,-0.15424951390570893,-0.06124220952357825,0.021126760174468007,0.022930437635437048,0.006556860114872789,-0.04364236857429315,0.0034707987806218985,0.04237842491147935,-0.0577330489203288,0.0021157397189039483,-0.11135056966011876,-0.03698180403240086,-0.015969347203703528,0.06331099471831725,-0.0025363867816381594,0.018440408573177938,0.053830351574368676,0.02383581402613707,-0.0491164582735333,0.020974698406301617,-0.01864925778104627,-0.06507994031276221,-0.03085636985601203,-0.05762656086439175,0.03177749209801175,0.05539321517233161,0.06185609752288592,-0.04604334549336777,-0.01673290794398003,-0.054776619950671485,-0.003671331613919093,0.024399964760926037,-0.014407019352017578,-0.0332672990980298,-0.04289618714209923,-0.011147655885418913,-0.0200967347787831,-0.016027851737374733,-0.03573885270875349,0.017590957904755948,0.09820448661358482,0.0017196758908792488,-0.05255192283177315,-0.05274794548048289,0.03373290212049419,-0.0014581828546730397,-0.011905884577594263,-0.04661407137372036,-0.026001760667869956,0.0015750220271088813,0.03880510836862273,-0.034930739710665085,0.011767196093358323,-0.028848524972331067,0.02181931251993204,-0.08783923966400023,0.0017254348744608768,0.004137138333103666,-0.03625841373722977,0.15028646834461326,0.12154206746714856,0.006210771075182679,-0.029390343171805798,-0.0036451157219183185,-0.039502949364027706,0.0526085447505325,-0.031008258076510645,0.04634265157542562,0.025209384976035896,-0.06493431874873615,-0.007795079054372072,-0.03160451371201318,-0.032724031431840744,0.010049275548573402,-0.03882848702625832,-0.008688184562025839,0.021195166152909103,-0.031389732529779474,0.009487657784883072,-0.04567208972667793,-0.06672830461585022,-0.002509487505125026,-0.04554881285069064,0.00024252094638825122,0.06964089989976185,-0.09597035731268959,-0.025439800167840778,0.038777498425219735,0.01804370311071632,-0.007215518293670019,0.01950475309341539,-0.02332149788369158,-0.009259696717840948,0.16934841691212568,-0.057183526801068,-0.029536489144921976,0.03128248249751303,0.006536719789550145,0.030553754870101136,0.09058012632764144,-0.04852751542480103,-0.05122060344450341,0.026146159866287644,0.008956409002779532,-0.044167463045241474,0.10524306927915043,-0.04817950040772031,0.08255012322507722,0.02886215290862249,0.10579767999204169,0.09804224348722974,-0.02030282848314501,-0.022908892364131246,0.032854409139918134,0.037696420515073575,-0.01480160230721031,0.07811197001426975,0.029620402270529603,0.043213820583543984,0.005013386794683242,-0.028909623505181066,0.06506497083876395,-0.034398085806145534,-0.033045146563647466,-0.0365155895152365,-0.03829062520161962,0.006243016510431913,0.020113994582611597,0.0017107589663170248,-0.0638746049669493,-0.02729067614256619,-0.051125434968053135,-0.04609111420350372,-0.017944549231811973,-0.027785298091827667,-0.007320632984716087,0.045576586311018207,0.00042225330500145507,0.07102318726347244,0.02902266637084353,-0.005696619299950501,-0.030725626593771954,-0.02347864994980492,0.048020886671003266,0.02567378675753254,-0.08937035825510702,0.03363784264992819,0.04178787474786929,0.0018012265155680162,-0.01304717777043193,0.0012183434538275445,-0.005482111979926363,-0.07461048733050371,0.08201775397756472,0.03749887848870543,-0.02450150180939429,0.03367274421060362,-0.04340056374930764,